26 300
*dt_0 0.15147552 -0.75841516 -0.5545488 0.30433193 0.5965784 2.181367 -1.0095112 -2.4734826 0.016030733 -0.26168954 -0.7102632 0.017177898 -0.24837613 0.91898626 -0.06625314 0.7145249 -0.29700288 1.9377459 -0.6287966 0.54348516 -0.30779245 0.31347477 0.24567169 0.6589928 -0.6609483 -0.34340408 -1.6047354 -1.7457093 0.6005337 -0.94113207 1.8876716 1.7040288 1.0290478 1.591734 -0.29830372 -0.4089161 1.167035 0.44874382 -0.78568333 -0.08729056 -0.103300914 0.5605265 -1.2090364 0.34407207 -0.014630037 -1.0137914 -0.55757785 -0.27287918 1.188478 -0.31903106 0.15976906 0.27700707 -1.7380676 -0.9353206 0.5078227 -1.0283463 -1.3774709 1.3080945 -1.1982157 1.2080214 -0.24401402 1.7647699 1.300688 0.3470867 0.7641131 -3.2606304 0.29891565 -1.1517767 -1.7915488 -0.09056965 -2.0114746 -0.39332864 -0.50029856 -0.5460142 0.052782945 -0.55847067 -1.4935316 0.37448952 0.19183357 0.66097635 1.1045679 1.1128421 0.8580566 -0.55805105 -0.13966857 0.40461326 -0.6957951 -0.5414496 0.92543393 1.2000508 -2.2807994 1.6675287 -2.7369833 0.46988764 1.6099385 0.71554846 0.010511956 -1.4979409 0.8983694 0.6778192 -1.6218858 -0.10676865 -0.56909525 1.7525674 -0.36186746 0.49601382 1.3689613 1.9739436 1.3674018 -1.0579649 -0.10314203 -0.99538296 -0.7428605 0.6888846 1.9350588 -1.3200805 0.0810543 0.24374361 1.6580784 -1.6881895 0.77976286 0.33000726 -0.65929157 -0.12903008 1.0298202 1.8628043 -0.2024374 -0.68691283 -0.8480542 2.3278039 2.3580751 0.56825584 -1.3868643 1.5100293 0.289439 -0.78685325 1.4432862 -1.6509286 -1.7450365 1.6580572 1.8627906 0.426557 -0.5717992 -1.4487778 -0.65686935 2.694686 -0.12888262 0.89822936 0.9532101 1.873411 0.98007333 1.0578796 0.93615717 -1.0816209 -0.45119688 0.0762704 0.20031363 0.15646881 -0.3813442 0.33198053 0.8478926 2.2876754 0.033264574 0.97767085 -0.80401576 -1.1493709 0.8521215 -1.0239818 -0.5184247 -1.5298816 -0.034009166 1.8468333 0.61660534 -0.8221782 0.008737839 0.175449 0.3613926 -1.1063493 0.0033299066 -0.5670372 -1.0050914 0.10699061 -1.3268833 1.1706953 -1.1588072 0.009070573 -0.75663465 1.1475143 1.0835611 -0.84953976 0.35805124 0.043864354 -2.6422749 1.5454192 0.9366223 -1.1087667 1.7989094 -0.08180155 -0.8582701 -1.2130276 -0.55397666 -0.16069782 -0.3653521 -1.6788043 -0.855041 -0.34581736 0.319724 -0.93753153 0.98526824 0.21690373 -1.855971 -0.23202127 -0.04347326 1.0532969 -0.9394885 -0.7540675 -0.5067753 -0.041620243 -0.683804 0.2470894 0.6814051 -0.059366263 0.3149892 0.37649158 0.10933043 -0.43805796 0.7355267 -0.19826981 0.51993877 0.9315316 2.5485845 0.11629188 1.7987968 -2.3720431 -0.068779826 -0.1061853 -2.2425637 -0.49408457 0.7444027 -2.632669 -0.40945262 1.0103314 -0.26697013 -0.49478918 -1.6231612 1.0131025 0.7726806 1.5895344 -0.59248143 -1.9760069 -0.18555266 -0.014401854 -1.320453 -0.70959973 -1.9655696 -1.8018694 -0.7989252 1.9498065 -1.3057569 -0.5834811 3.0928183 0.24582142 0.6441151 1.4262394 -0.5012791 2.6278536 0.56748307 1.6182066 0.1089978 1.6120614 -3.32684 -1.6112669 0.33257562 0.7471291 1.4221272 0.8700979 -1.9325725 -0.91864 -2.0283084 0.73594946 0.015506751 3.3990564 -0.32555747 0.8046551 -0.49873653 0.102515064 -0.6154578 0.010811047 -1.232698 1.2298621 0.6985929 -0.2505499 0.06889928 0.32638592 -1.1689501 1.1678888 0.5289501 -0.30829194 -0.22311586 -1.0481201
*dt_1 0.8498187 2.0467043 1.218259 0.98894763 -0.24404785 0.15301919 0.27369207 1.475679 -0.25284526 -0.17862588 0.9977106 0.016046433 -0.649081 -0.4216842 -0.9048346 2.1117496 1.9471896 0.95571476 1.3836715 -0.25113848 -0.14569522 0.3774826 -1.3792849 -0.44887704 -0.066052265 -0.9654924 -0.48680684 0.017043147 0.7664842 -1.0589024 1.3899177 1.2378168 0.023772769 0.3222154 1.3077043 -2.5966876 1.4619097 -2.002441 0.46315753 -0.005813398 0.7033531 -0.10863873 -0.79569495 1.2383788 1.1168078 0.25603887 0.95490324 0.15865357 -0.2701874 0.75480616 -0.14092438 0.5738757 1.1334376 1.1496764 -1.2776417 -1.6119797 0.4704522 -1.9106072 -2.1190012 0.2894064 -1.1685827 -0.560157 0.19306986 -0.6754187 0.4566041 -1.2525611 -1.8075655 2.1479988 -0.16007398 0.759638 -0.25737745 -0.4946795 -2.3107252 1.4004209 0.68922335 1.5540508 0.259464 -0.96677953 -0.28630754 -0.6694951 0.116979964 -0.25179163 -0.34959814 -0.6014676 1.3874191 0.5960643 -0.41701648 -1.5104831 -0.96565527 0.30769923 0.05988143 -0.6967806 0.44122934 1.0540429 -0.9027634 0.93992144 -0.6405342 -0.47790587 -1.2976142 -0.40299153 0.8097717 -0.6873726 -0.43190986 0.046138145 -2.6342943 -0.61142296 0.82943016 -0.78793776 0.44295323 0.3406833 -1.3059499 -0.38680458 0.44726464 1.7703556 1.7958012 -0.34615886 -1.1378734 -0.4999921 0.07200649 0.22320363 0.5817121 0.4079407 -2.265859 -0.43346936 -0.15171534 -0.88199496 -2.2904954 -0.34133863 -1.4272109 0.41266847 1.4023287 1.4041301 -1.885314 1.9028542 -0.17648141 0.87152344 -0.8106567 -1.0482206 -0.91197497 -0.09312704 -1.514247 1.55202 2.151103 -1.3303336 -0.14125423 0.8412922 0.6509492 -0.47595212 1.4647272 0.39828086 0.3077747 -0.88094777 0.9455819 -0.42108425 -1.4216343 -0.8395286 2.4152036 1.2851126 -0.67273587 1.3192759 0.33002326 0.9003005 1.0364221 2.8982556 -0.39011225 -0.88943875 -1.6177734 0.19698697 0.5510151 1.433266 0.9689523 0.6895456 0.51074624 0.9261122 1.3087847 1.6423414 1.2478147 -0.75616163 -0.448944 -1.2015834 -0.48795605 2.3125763 -1.3961781 -1.485425 0.934838 -1.094625 -0.5843463 -0.14484616 0.37152547 0.28426492 -1.6789383 -0.31291056 0.5875297 -1.0331504 0.040361643 -0.6355972 0.13383056 -0.032865256 -2.0077713 0.99595726 -0.50208396 -0.9858607 0.68543774 -0.49149427 0.17147358 -0.5366547 -0.49647206 -0.6383585 0.2629855 0.10118678 0.12063242 -0.34446195 -0.15568322 -0.30092907 0.20104113 -0.2242179 0.9571974 -0.3555669 -1.4075121 -0.9536185 -0.854318 -0.62318826 1.1115072 1.6080132 -0.108068205 -2.754462 -2.3821354 -0.9662906 -0.4166884 1.852325 2.010996 1.1385744 0.39973414 -0.84300137 1.1406667 -0.597809 1.0742469 -0.23714383 -1.2425382 0.3165546 1.5892462 -0.68435293 0.58493954 2.0761366 -1.4622892 1.3227445 -0.007867365 -0.45995086 0.03803436 -2.4398167 -0.55683917 -0.8863035 1.4838537 -2.0578504 -0.5790335 1.4589018 -1.4923661 1.1388885 1.8790073 -0.30246943 0.64480054 -0.14500543 -0.09746108 -0.41416568 -0.93496126 0.20668748 1.2279117 -1.038361 -1.2008964 0.7519409 -0.46570337 -1.012333 0.28722605 -1.0665845 0.19381155 -1.3187413 1.0556937 -0.4763398 -0.90675473 0.12919728 0.49186373 0.5349879 1.5071017 0.33840582 -2.7925174 1.5493648 -2.1185877 -2.3019676 0.0031598057 0.75595284 -1.0683829 -0.3233545 2.0079653 -0.697948 0.34796187 -0.38585153 -1.8069564 -1.5731399 -0.1215381 -0.28495663
*dt_2 -0.5301292 0.0038707347 -0.6507934 0.7556973 -0.59839827 0.42343575 -0.05256362 0.11335338 -1.2723958 0.02550696 0.036597334 -1.2823097 -0.18124029 0.42285708 -1.470607 -0.12935421 1.0428741 0.66145974 2.2393558 -1.4779797 1.9576882 0.18361981 1.1259011 -0.14511484 0.71124184 -0.8612219 1.1589903 -1.3525494 -0.06605835 -1.611241 -0.15885739 0.9945113 -1.480767 0.4017293 -0.5307633 -0.52617747 -0.10718154 -1.1156155 1.7622626 -0.760062 0.5044702 -1.4384502 -0.58584166 -0.86439556 0.3742958 -0.039242405 -0.26230744 -0.54781514 0.11031321 0.20845985 -0.720578 0.30456266 1.9172981 -0.97162384 -0.0086774705 1.3953773 0.15466604 0.8579943 -2.8338633 1.8374373 0.1326755 1.0491029 0.9123985 0.3859419 -1.0992215 0.09969536 0.3372801 0.08686383 -0.19662856 -0.12867746 0.106936686 1.7525659 -1.1061076 3.6580655e-05 0.8232908 2.2617607 -0.6883011 -0.9112908 1.3638264 -0.13842116 0.0752026 0.45842266 0.53411925 -0.24375549 1.1185721 1.1692815 0.08812706 -0.17252508 -2.4597647 1.814973 0.17676997 -0.4068865 -0.42108986 -0.4384885 0.04990488 -0.16005026 -0.36647943 -1.718216 0.40146628 1.6789503 0.022107001 0.0296496 1.3359001 -0.3405228 -0.15491144 -1.3267691 0.9987945 -0.16949776 -0.8816913 0.53596705 -0.0047573843 -0.94650906 -1.611095 -1.9614059 -0.68493664 -1.8446643 -0.2722432 -0.5753713 2.166207 2.3337235 1.28313 0.5777192 1.0230237 1.4443349 -0.4548327 -0.09770362 -0.7275248 -0.25618923 0.51482934 0.92021537 1.2326502 1.3490303 -0.2622183 1.1861206 -1.1239437 -0.27172127 -0.4688362 -3.1845558 0.7245967 -2.6147802 1.8422452 0.87341326 0.37054056 -2.2667832 0.27754864 1.5491225 -1.2666485 0.6718377 0.4855091 0.5652645 0.704992 0.52420795 2.1695855 -0.44085786 2.564475 -0.21000297 0.4322095 -0.0720674 0.6281497 1.2681903 0.16703466 1.343552 0.85649014 -0.3515012 0.6058029 -1.6179625 0.5466956 0.28789273 0.91194767 2.1570387 -0.4535968 -0.49003196 -0.28344318 0.95439804 0.005392376 0.44448334 -0.26146752 1.8442296 0.47521883 -2.0510306 -0.84914005 1.1345859 0.5507382 0.5373894 -0.5744492 1.4452518 -0.41785052 -0.4988711 0.5515855 0.34229264 -1.2615623 1.1813626 -1.56957 -0.9213581 0.4994466 1.27772 -0.28535044 0.09630062 0.19499898 1.6927774 -1.609651 0.12842004 1.0167482 -0.84191513 -0.3439904 -0.77210814 0.71367687 1.8655758 -0.3065987 0.93763584 1.9003161 -0.06625488 -1.2185645 -0.8464463 0.91788703 0.49865305 -0.98970926 -1.6815609 1.4171208 0.39659262 0.75322074 -0.3635761 -0.6860688 1.8299685 -0.40840587 -0.39558882 -0.4770734 0.8381203 -1.3270658 0.5478135 1.9062464 -0.47198725 -0.4215019 -0.6272342 0.17599984 0.5448285 -0.51285154 0.22960603 -0.1836129 -1.4235249 1.328855 0.77964133 -1.6102588 0.10804509 0.5651051 0.76127946 0.23086098 0.13041782 -1.8855747 1.2497663 -0.5449724 -1.1772034 -1.4254634 -1.8968138 0.6867996 -0.23785368 -2.4791594 1.34367 0.17336693 0.12855384 1.1335438 2.5772252 -0.35413605 0.4302671 -0.0998845 1.8357737 0.8795373 1.2959955 0.3836838 -0.8035631 -2.6200607 -1.657504 1.1484584 -2.0973313 0.7478056 1.3707716 -0.669185 -0.65617305 -0.12340971 0.6138648 -0.6412458 1.4621193 1.2018467 0.055230554 -1.5499394 0.35743567 0.9855185 -1.3441254 -0.67218417 0.9974544 -1.3851748 -0.42336288 1.9117864 2.3988726 0.15506667 -0.79937977 -1.3737272 -1.6830572 0.053201146 -0.82746214
*dt_3 0.9445994 1.6568692 0.15483072 -0.099051744 2.265537 0.43901616 -1.4156001 0.36322814 0.65141404 0.22797476 0.08525116 -1.1838639 -0.59388953 2.5003457 1.2966043 0.002906031 1.3106631 0.4013781 0.6456307 -2.023739 -0.20775166 -1.3146892 0.87196726 -0.41009274 0.7396718 -1.0211656 -0.512489 -1.5003496 0.5531716 -2.8622184 0.39781713 2.1638842 -1.1242911 1.2123078 -1.9944183 0.2870747 -0.78878576 -1.3367463 -1.0371176 -0.74136984 2.1427188 -1.4141045 0.32272997 -0.42496562 -0.97780126 -0.09209233 -1.1072925 -0.7336122 -1.0727854 0.8532461 0.99939835 0.6643033 -0.04756165 0.25574082 0.5694361 1.3633825 -0.8277282 -1.0823275 -0.17771296 -1.4824343 0.20824781 1.1896327 -0.094557986 -0.59042865 -1.0329918 2.0322788 -1.1500504 -0.21745177 -0.88680494 1.2407762 -0.7669089 -0.13801908 -0.7651549 -1.3840561 -0.25080845 -0.766387 1.7912496 -1.7772981 0.85027444 0.22192906 1.3375736 1.217356 -0.29510257 0.8822775 1.804791 0.5571718 0.1356225 -0.79790443 0.65684474 -0.8880051 0.17232236 -0.005849856 1.1661851 -0.18474525 0.11825536 -0.25456294 -0.36702883 1.5777469 1.0346719 -0.29001054 0.2769154 -1.5794262 0.033021275 -1.2443845 0.16730423 -0.57622343 -1.6692022 0.29760635 0.12595582 1.4838439 -2.9251416 0.7964819 1.3008002 0.17524554 0.00379328 0.22139156 -0.4802583 1.2732733 0.56361836 0.676857 0.59650266 -1.4260495 -0.5799627 -1.3233541 0.48686433 0.6768401 -0.8041195 -0.4857378 0.4549115 0.50470674 0.5583745 2.4148905 -2.0416791 0.375379 -0.026945064 1.498959 -0.93101454 -1.3277549 -0.73529047 -0.41932997 0.21385066 -0.65513885 -0.13463843 -1.3747317 1.6718087 1.196896 0.7698842 0.31117728 0.646224 0.37548965 2.2616324 1.8748976 -0.22445612 0.46144122 0.906856 -2.2334254 0.41978544 2.021536 -0.37592402 -0.7131306 -0.06021016 1.253963 -0.16368014 1.4685217 1.1969358 -1.7892585 0.37652677 -0.32963246 1.3134084 -1.525358 -1.166461 0.27501372 -0.7359073 0.24397147 0.08425637 -1.3404329 -0.6738433 -2.4200892 -0.5201031 -0.78562033 0.18550637 -0.32912403 -2.297986 -2.0929248 -2.0974243 -0.16596995 -0.16765203 -1.3939927 0.6308686 1.1723777 0.14049941 0.90405816 2.2298615 1.3055958 -0.023293061 0.63387954 0.20676456 0.16025849 -0.3798958 1.3929209 -0.6967674 -1.8023636 1.1070331 -0.033073552 0.6917561 0.32615906 0.99121 1.1379694 -0.27599216 -1.7236269 -0.43311596 0.39398885 -0.6939238 -1.1521157 0.7949424 0.42881438 0.9189839 -1.3384284 -0.2306935 0.011573745 -0.44987202 -2.0063996 -0.75622994 1.1788765 -0.71006167 -1.784933 -1.6340805 0.13026199 -0.7333274 0.7792586 -0.021156454 -0.28825447 1.6842979 -0.09629467 -0.7243345 0.89351934 -1.8288397 -2.4201934 -0.74171776 0.6814047 -0.18680614 1.0760583 -0.2629258 2.0409644 -1.7764549 1.2233037 0.20207784 1.9769763 -0.6927347 -0.9547061 0.09728738 -0.2030874 0.2703877 -0.8183541 -3.722669 -0.40224802 -1.3184175 -0.410373 0.95982677 0.68189573 2.150586 -0.6645498 -1.6094413 -0.070700124 -3.4950404 0.5240322 -0.30587125 0.51224387 1.5483354 0.04841062 -2.187066 0.5247394 0.8825131 -0.78375816 -1.1073618 0.54750645 1.8656136 -0.93338037 0.86877114 -1.1339682 -0.08676719 2.1986134 -0.41321206 0.057428647 0.47724763 1.9014058 -0.4181799 0.2189371 -0.6260584 -1.3248649 -1.224765 -0.28880996 0.18286401 1.2957727 0.00530893 -0.9055204 -0.032595754 -0.31670266 -0.25037444 -0.5207
*dt_4 -1.593731 -0.16142054 -0.94607896 2.7714865 -1.455806 -0.09847406 0.6715639 -0.4250147 0.23697855 -0.73343337 1.4351895 -1.4544367 0.65099525 -1.4126295 -0.8330431 1.6753542 1.0233698 1.0765562 -1.1978512 0.53224623 -0.49542353 -0.025439397 1.8315009 -0.18310612 1.4464064 -0.41053858 -0.55963683 -0.4224205 0.6743707 -2.15235 2.697866 2.0382404 -0.23143964 -0.871119 0.56708556 0.22210053 -0.18944375 -1.5874659 1.4878749 0.91702574 -0.48257944 -1.1353015 0.26293895 -0.8624681 0.27540937 -1.0212204 -0.060261168 -1.120391 -0.1451706 0.75759655 -1.5055867 3.1377802 0.6230469 0.20713541 1.6588343 0.5981221 0.26252088 -0.90775734 -1.1935561 0.31233296 -0.25741857 1.1742496 0.6727385 -0.7813705 2.4737887 0.15173051 0.9993044 0.49362597 -0.43274364 -0.5758336 -1.3132142 1.1263243 0.36778265 -2.3023248 0.16977887 0.07439275 0.8869653 -1.1997851 -0.73869044 0.82611555 -0.09336983 -0.9041431 0.80959916 0.85284424 0.28848568 2.2327647 0.30001324 1.5709392 -1.679208 -1.2511268 -1.7105535 0.60017914 -1.295377 0.039866753 -1.5733441 1.3424397 0.44600552 -0.02029909 1.3651136 -1.3063565 -1.5432601 0.454948 -2.6108618 0.79412436 -3.1419475 0.59079665 0.7697791 0.20810442 -0.7845881 -0.7537324 -1.3035583 -1.9459859 2.3330185 -0.4304378 1.3610098 -1.0791676 -0.2131223 -0.65925837 -0.5455186 0.603855 0.9202418 -0.8386145 -0.23614079 1.6637388 0.81523305 -0.3441796 -0.8806739 -0.32117835 1.0590382 0.67380464 1.7017909 0.35466802 0.60237044 2.1353703 1.4159548 -1.0251193 1.3754714 -3.6960654 -1.0866948 -0.5403541 -1.220874 1.7418275 0.7836222 -1.8310984 -0.3693409 0.16425166 0.7255769 -2.678698 1.4820888 0.52936214 -0.48382583 0.80556744 2.108899 -0.23455049 -0.27756062 -0.41273898 -0.13636439 2.6612604 0.11853513 0.027759429 1.4484272 -0.3526985 -1.6361102 -0.8790558 0.34830695 -2.1687393 -0.35610005 -0.81886595 -0.47752538 0.67890555 0.23310754 0.5805089 0.766799 -0.7982318 -0.83974344 -0.92892474 0.34150785 -1.1767751 -1.0123576 1.7439171 -0.011932212 1.8930025 1.1096634 0.005034069 0.473504 0.9255362 0.4843606 -1.2607576 0.46817788 0.17043465 -0.12133397 0.11380483 -0.82929945 2.26159 -0.5797418 1.0243273 1.0224028 0.020636773 -0.7774841 -1.5726323 -1.0862962 0.45018235 0.97029424 -1.4706647 1.1100727 1.5133102 0.54914844 -0.43540072 1.5116042 0.20764549 0.56510776 -0.86481154 1.4067117 0.08611587 0.2819663 -0.3301062 0.185013 -0.8360969 -1.1585748 -2.1564517 1.8440644 0.5711566 -0.3507097 -1.2192657 -1.5372084 -0.101557985 0.06803753 1.9348692 0.14976418 0.95670235 1.0810674 1.454734 0.90588903 -0.77863634 0.2625521 -0.8981424 -1.4524398 -0.8106887 0.30912766 1.9003389 -0.29476902 2.0895078 0.28825837 1.8404585 0.9032548 0.1833055 0.6401774 -0.5629408 -0.06280609 0.071240455 -1.2482346 -1.0078579 0.47063452 -0.36862034 -1.4488609 -0.23181666 -1.5504357 -0.25986612 0.56312114 -0.6709935 0.35364175 0.52300787 -0.3312382 1.1250395 -1.7541009 1.4891046 0.32903934 3.405816 0.27547035 0.2759752 -1.2763337 0.0076200515 0.17023842 0.2688998 1.170536 0.7682811 0.30652598 -0.3171982 0.7707479 -0.21862978 -0.5858909 1.052884 -0.34968042 -0.038819566 -0.20155281 1.311291 -0.30837765 -1.6969562 -0.09334516 2.7178993 -0.8681606 0.1477271 0.4671547 0.5497065 -0.14061922 3.2875464 -1.8341782 -1.1683272 0.46602646 -0.24260315
*dt_5 -0.34234014 0.39136332 0.6361585 3.6109166 1.4739975 -0.8939216 -0.48237967 1.701131 -1.8551946 -0.44091332 2.4227808 0.96612865 0.39450625 0.33855855 -1.5070809 -0.5068858 -0.52543586 0.44566494 -1.5401269 -0.67131746 0.43937433 -1.1857616 0.4695138 -0.8166355 0.7390121 -0.07941944 -1.1205374 -0.29816073 0.4232192 -1.6060958 2.3930304 -0.7337919 0.036722112 -0.8798202 -0.11769438 -1.6956441 0.6669545 -1.4761324 -2.1578376 0.24765553 1.084418 -2.3031735 0.222196 1.1945428 0.9583703 -1.4213667 0.894819 0.039898016 -0.08168444 0.47011945 -2.108301 0.43739006 -0.6968586 0.60124475 1.5549172 -0.20492168 -1.3995087 -0.047952782 -3.0022583 0.45061886 0.46450534 2.7107215 0.77518594 0.26786897 0.88679624 0.066951714 0.60273063 1.4394244 0.18192367 -2.611746 -1.6828789 0.15734816 -0.3597895 -1.4078988 0.021326216 1.2985357 -0.11986415 -1.4361769 0.6799298 -0.30292284 -0.8332812 1.6920826 0.29519236 0.85961413 -1.1550924 -1.9165539 -0.90019536 -1.2004434 -0.31572896 -0.17213526 0.22729397 0.30262613 -1.2806712 -1.2014604 -1.0127896 0.89046323 0.3082315 -0.8753155 1.2944072 2.8244827 -0.06237493 -1.921351 -0.75286263 -0.05547141 -0.12405062 0.22440454 0.19056852 1.1827359 -1.6468167 -0.11581584 -0.6788579 -2.1112976 -0.05158588 -1.1243769 1.015956 0.6938163 1.4742162 0.25622895 -0.77508014 1.2614272 1.4150791 -0.27511787 0.40651935 0.0672569 -0.65570354 -0.8775974 0.28125605 -0.9052083 -0.36459905 -0.120133884 1.904217 1.3303528 -2.2646666 0.87198424 -0.8205208 -0.13466765 -0.32002395 0.96671194 -1.189884 0.8766172 0.13270544 -1.4033298 -0.45860872 -1.1334654 1.7801116 0.73887473 -0.32858235 -1.2024487 2.4780817 0.44072863 0.110042974 0.5279163 0.49797758 -0.7398479 -0.37126917 0.8427448 -0.49239784 -1.3140684 0.2962633 0.48207584 0.81957626 0.0121248355 0.15718637 -1.0202881 -0.45104465 -3.1730614 0.029609226 1.1739202 1.1076353 0.95851874 2.023205 0.14998186 0.079242885 -0.037286583 -0.2512893 -1.6776643 3.0126216 0.7945312 -0.59917325 -1.4889392 -1.0060127 1.1624072 -1.4047016 -0.051625095 -0.7775988 0.019745518 0.4113025 -0.6501339 -0.28294083 0.22459333 0.75041854 -0.8178246 -1.1520394 0.23247522 0.39738137 0.008275876 2.132209 0.21292874 -0.31526187 1.0484369 -0.5463947 0.37255022 0.07764995 -0.4990067 0.6084244 -2.140086 -0.6305781 1.17139 -0.09090943 -0.8875938 0.20071761 -0.16748796 1.3777695 0.0627172 1.2630637 0.7637723 1.8994198 0.75588375 -0.61692643 -1.6401167 0.23033594 -1.0241371 -0.87874603 -0.0029274432 -2.536959 -1.104211 0.38517818 -0.065638766 0.11655533 0.33994937 0.13694905 -1.3465594 -0.58478194 0.45679826 0.48927823 0.0506345 -1.4240373 -0.8968537 -1.3245825 -0.4493129 -0.39946714 -0.76900464 0.054374103 -0.84141034 -0.14333256 1.5556428 -0.038218014 1.0686469 -1.8740294 -0.20572725 -1.3214188 -0.4822747 -0.19783778 0.31481096 -0.3025482 -0.035414524 0.42487374 -1.3881458 -3.060871 -1.4495775 0.51613855 0.7081049 -2.6633542 1.696132 -0.14907248 0.39579368 1.1702241 0.7457881 0.42366302 0.75125164 -2.0399222 -0.87513524 -0.61509365 0.19993149 2.0917382 -1.9431527 -1.0079219 -0.23047675 2.176984 -1.2974317 0.5397155 1.7203308 2.1072836 0.1323119 -1.2826165 -0.18251897 -1.8676467 -0.018857604 0.81308913 -0.020379314 -0.7924448 1.0291376 0.08121068 0.69131273 0.7436188 -1.3701708 -0.3015611 0.498887 -0.60440165 0.5259732
*dt_6 -0.86459637 0.8562774 0.14966756 -0.060990527 -0.74214923 0.6755639 -0.01844606 0.2911476 -0.7413338 0.04653312 1.7685877 0.4391758 1.7863911 -0.23377165 0.95721215 0.021746667 0.5294081 0.18183161 -0.26590425 -1.0701382 1.6936971 0.80961573 -0.13474183 1.0344914 1.5628268 -0.35282668 -1.999545 0.7375632 -0.59650964 -1.7363826 -1.3223445 -0.40972462 -0.9707005 0.4093095 -0.09602537 -0.54646736 2.3631725 -0.919287 0.7594259 0.2774567 0.6382915 -0.3090149 0.30583134 -0.22808535 0.29828167 -0.079170115 0.47179428 -0.5812557 1.2604296 1.0033702 -1.0712147 1.4635159 -2.1977599 0.07517239 0.3827503 -1.7298515 -0.77134126 0.49730206 -0.9736771 0.38675955 1.6457763 -0.0012543892 0.8861964 1.8179591 1.1027116 0.96267575 0.4281801 0.42061228 0.5238717 1.4196365 -0.02372527 -2.228001 -1.418015 -0.04691811 1.6182628 1.3664893 -0.5066288 -0.7170011 -0.72335035 -0.5251403 0.044834174 -0.22007301 -0.9564271 1.2874948 -0.9598187 -0.35012254 -1.1249512 -1.2929103 -0.9559307 -0.52905566 -0.48362857 -0.39531067 -0.8755303 0.76242334 0.4759133 0.63992226 -0.058181234 0.2970812 -3.0180929 -0.15132236 -1.1822491 -0.5866783 -0.50051534 2.5149775 -1.5285183 -1.2634495 0.45911637 2.537512 -1.5336065 1.1631966 -1.820042 -0.5026974 0.24942312 1.648688 -0.12409036 0.8891329 0.7158052 0.19872758 -0.98816395 -0.7172674 0.37405068 0.6974239 -1.0779543 -0.71111965 -0.8663178 0.80324024 -1.4241396 -0.22565636 0.59007883 0.2542937 0.25421593 0.8419639 0.41957098 0.44986048 2.5387738 2.0123053 1.9011526 0.28643623 -0.9967485 2.9715104 1.7659761 0.7258204 -1.2248144 -2.1016774 1.0847827 0.71251583 0.13329065 -1.1567608 1.9990705 0.5647418 -0.6487578 -0.6564038 -1.7205976 0.09113509 0.2531526 1.1491556 0.89468384 -0.31415382 -1.0017985 0.6615462 -0.78730476 2.5926232 -0.45544598 1.1326838 -0.29318792 -0.8162969 0.7261911 -0.29386297 1.6166121 1.5847437 -0.6599327 0.56927764 -0.4624127 0.69508404 -0.51598233 0.5526967 1.6722571 -1.2524745 -0.2861676 -0.5451944 -0.5403023 2.563064 1.2607443 -1.6261706 0.8610758 1.4556729 1.4110557 2.0102875 2.6763783 -1.1393971 -1.6706786 -0.8640496 1.7544483 2.4612556 -0.33073023 -0.0059955255 0.7723363 -1.1164606 1.3428029 1.5491363 -1.1698227 -1.1729678 0.45314068 0.88506156 1.1378843 0.3191967 1.6423262 0.415944 0.13377327 0.29192355 0.9466599 -1.3133812 0.028941259 -0.2901765 -0.75917345 -0.25348157 -1.7613522 -0.744302 0.059987992 0.46040592 -1.8637581 -0.40593767 0.48121175 -0.32680497 -3.1299288 -0.45452505 0.9146579 2.8650584 -2.0287986 -1.0035596 0.3102171 -1.5628567 1.0481905 0.45655787 -2.431027 0.46414953 1.0653145 0.821427 0.7439406 0.06510191 -0.2622742 -0.10178522 -0.87337536 0.86051124 -0.36829466 -0.47758973 -0.4615375 0.43540236 -0.07689306 1.4603899 -0.9668017 0.22685654 -0.24079882 0.22789635 -0.8574497 0.12872738 0.13938138 -0.6042339 -1.4193263 -1.0996015 0.44836205 1.7898057 0.5305144 -0.30152667 -1.2219028 1.562976 -0.20440874 0.18520276 -1.3702908 -0.42899624 -0.80508953 0.43582308 -1.5143785 -0.7549339 0.34577295 -0.24526922 -0.82084656 0.41216418 -0.042370595 -0.6210978 0.13086349 1.7533988 1.4398791 -0.51651466 -0.19484575 1.1823884 -1.8476161 -1.4770057 0.772339 -0.116180055 -0.81243205 2.085492 -0.28969616 -0.43411544 1.9862782 0.21885215 0.6826725 0.91554797 0.38845104 1.3366767
*dt_7 1.1983931 0.3835031 -2.4502425 -0.6477865 0.21099448 -0.5508491 -0.20967726 -1.3223999 -0.72770494 -0.8065877 -2.2533982 -0.67999893 0.46570098 0.39568645 0.06472193 0.41284186 0.24350242 -0.16949303 -0.63820696 -0.06429796 -1.6796676 1.2129629 1.9473081 0.52175623 1.4601454 -0.42958897 0.6282206 1.0572178 1.2944096 0.21264197 1.1761886 0.41369808 -0.66030794 0.4626375 -0.34426317 -0.48337442 -0.10464131 0.19749431 -0.73527426 -1.0522608 -1.2587306 1.2476556 0.0756853 -0.10359915 -0.913169 -1.4891869 -1.71381 0.9356164 0.61171055 0.9467022 -0.55264187 0.912428 -0.2341587 0.3179569 0.7042539 -0.543002 -0.88064426 -0.30981755 -1.227291 1.4477038 0.248376 2.3687327 -0.31004003 0.062238876 -0.059607595 0.82701373 -0.29484484 2.910188 0.4372062 -0.026847249 -0.7755737 -1.9244542 -0.5025996 -1.2480398 0.28697348 -0.19683202 1.5686276 0.4395811 1.3333689 2.0106044 -3.1656988 -1.1329925 0.47294 1.4530255 1.575865 0.28601635 -1.6642545 0.3447892 1.1242719 -0.9369751 -0.4103602 0.7373522 -1.4271964 -0.017017508 1.5408393 -0.1486003 0.6153916 0.85547256 -0.38428774 0.9722941 0.93274003 0.86709493 -1.0883012 -0.33000547 -2.2030077 0.49760157 -1.5614138 1.0768579 -1.0918771 1.0104676 0.47988588 -1.2165531 -0.20123486 -0.47021374 1.7649171 0.5584318 0.031586275 -0.83627605 -0.7925205 1.2269478 0.75761527 0.53845376 -0.79726285 0.06594076 0.31388193 1.0257761 0.6222202 1.549076 1.4782188 0.3054713 0.6170948 0.2544707 -0.39209095 -0.42995062 -1.0074179 2.1633646 -0.43005395 -0.7687998 -0.281151 -0.6599995 1.2940415 1.3629061 0.046275847 -2.1051533 0.7912412 -0.03132316 0.046945147 -1.5966115 1.885176 2.3990448 -0.20245889 -0.8696781 -1.0501373 -0.682752 0.5824041 1.8585082 0.26272073 -0.04449115 0.7751477 -1.1341418 0.75296897 0.058231708 1.2623028 -0.027126499 0.015894823 -0.5109486 0.4406027 -0.47210437 0.2551408 0.113867074 -0.15993725 1.8262417 -0.12766583 -0.41537562 0.6087805 2.7925725 -0.26022133 0.98667175 -0.10971756 0.1801477 -1.8811709 0.6947327 -0.7843802 0.44774893 -0.35163665 1.5291932 -0.5545153 -0.56410843 0.07016999 0.14356463 -0.6923585 2.2050087 1.4343882 0.5283888 0.66517335 -1.8512555 0.5683608 -0.92412245 0.8106969 1.3433384 0.20915839 -0.70939904 0.78918314 0.31176654 0.82381576 -1.1886992 0.17014132 -0.46129778 -0.2748868 0.54192084 -2.0294003 -1.157833 -0.96436244 -0.35914668 -0.7583991 0.44774985 -0.42891484 0.258706 0.36356124 -1.1229668 0.7782925 1.1112494 0.06341902 -0.014608477 -1.7026551 -1.3703233 -0.77260834 -0.13964705 -0.6366448 -0.5262365 -0.13601948 -3.804648 0.53966594 0.34235087 0.98632485 1.0879166 -1.7256002 1.1323087 0.96888596 0.24957225 -1.0420004 -0.048231285 -0.08083972 -0.086029656 0.34065157 0.15564363 -1.1845193 1.9875536 -1.4457939 -1.2872983 0.8710446 0.38020772 -0.4923121 -1.7492262 -0.26169682 -0.524465 1.9370024 0.6834869 0.3202268 -1.1094557 1.9235733 -0.25597697 -0.3952363 -0.6680786 -2.5257545 1.4645303 1.4447565 1.0341653 -1.2584608 -1.0244691 -1.3093578 0.34607297 0.48767087 -0.46348438 0.6353905 0.017366825 -0.2276077 -0.79600525 -1.1276773 0.45301506 0.14303012 1.160327 -0.16847539 0.71760845 -0.22817838 2.2130475 -0.67633003 -1.4967737 0.45512953 2.0438788 -0.855885 3.090306 -0.3179599 -0.4619947 0.18155952 -0.86658525 -0.38285396 -0.027341882 0.63403195 2.7008448
*dt_8 -0.48726445 0.584495 -0.43007475 1.7225794 -0.015142845 -1.0479199 0.14748701 0.6674347 -1.7103796 -0.6414247 1.7279161 -1.4455318 -0.13887921 1.2237802 -1.3441151 0.61193454 0.57932407 0.68971497 -0.711328 -0.7509459 -0.7427901 -0.5642017 -1.1952493 1.0134139 0.9783636 -0.7616603 -1.1024742 -3.1182659 0.09070545 -2.2510633 1.048879 -0.3297801 -0.40751702 1.0189865 -0.92794997 0.119141 -1.0345722 -2.0675185 0.65327805 -0.40957767 0.9730874 -0.018081611 -0.04770641 -1.4794441 -0.24154453 -0.764934 0.009582436 -0.25187877 -0.004099215 -0.92454857 1.7985138 0.96019113 -1.1155585 0.62018204 -1.5006763 -0.93797433 -0.99392635 -0.26304394 -0.68222755 -1.3611981 -0.14611268 1.4547042 -0.7612978 1.8050596 -0.19438209 0.29902172 -0.35091367 1.0406148 1.3031964 -1.5783153 -0.50500864 -0.24870154 -0.62651396 -1.4309471 -0.33099663 -0.3666686 -0.42871845 -0.5938624 0.9327036 0.23991728 0.54755235 1.8760426 -0.72304815 0.6140235 1.5420445 -1.3978184 0.22209941 -0.060412493 0.30788326 -1.1558347 -0.27277008 0.7087204 -0.7181144 0.4667628 1.3501786 2.5604346 -0.89258224 -0.69963634 0.0797141 -1.287095 -0.8051549 0.19975738 -2.2175863 -0.9481953 -1.2729589 -0.19224603 0.1688572 -0.06527887 0.3388946 0.47512126 1.2297202 -1.1605359 2.2415087 -0.30799675 -0.30051208 -0.43377343 -0.8501547 -2.076955 -0.5909396 -0.65556115 0.44176242 -0.63725203 0.91317147 -0.70297176 -0.25156015 -1.020163 -0.9636481 -0.22841217 0.43692675 0.33296776 1.7129608 -0.80131596 -0.068713 0.71346635 -0.16181123 0.80663633 -0.5330553 -1.6543655 -0.9371124 1.4027432 -0.33477825 -0.1401412 0.7092764 0.117248066 -0.2995962 -0.6875654 -0.040323757 0.22899097 1.2120439 0.34186235 1.4343023 -1.1577924 0.3471008 -1.5593605 0.21756738 -1.8391311 1.757367 1.9187409 0.28903812 -0.14463562 0.62894696 -0.35086405 0.79709345 -1.2616633 -0.38615754 -1.1900772 -1.3848615 -2.43425 0.2268891 1.847837 0.9365656 1.51345 -0.83452505 -1.1062473 -0.45564854 -0.44196898 0.53244835 -1.5656118 0.016868958 0.30816698 -2.4438074 -0.27251485 0.94403535 2.555572 -0.57550204 -0.2835178 -1.4441792 -0.1692979 1.1051629 0.5913011 -0.12177087 0.8198133 -0.4400784 2.1361234 -0.027363244 0.62341726 1.0585147 0.20073833 1.222774 0.17701396 2.8147824 -0.86508703 -0.25390214 -0.1833596 1.317591 -0.500523 0.3985538 0.29917586 -0.1629795 -0.8025039 -0.5067524 -0.08761707 0.68667394 1.2453803 1.1772081 0.027754445 -2.0545723 1.1429747 -0.05646724 0.3345278 -0.8641921 2.4624205 1.7663684 0.67624223 -0.17763215 -0.8945428 -2.5175421 1.5166353 0.04216217 -0.7827822 3.2765307 -1.0259794 0.66978186 -0.7076008 -0.0904338 0.22655267 0.22193424 -0.3759032 -0.3346656 0.26582494 0.27130708 0.50400656 -0.8040749 -0.20288265 1.9076533 0.35993686 -1.5398802 1.4091693 -1.2505243 -0.18079688 -1.3525087 1.1043258 -0.7485714 -0.05588841 0.92112064 -0.01793223 0.79613256 -0.081288315 1.1172386 -0.882133 2.1739383 2.376064 -1.3155692 0.9527498 -1.8820411 2.281129 -0.64317703 0.4943472 -0.0025227494 0.9695051 -2.797458 1.128499 -0.89621216 -1.7726077 1.7728255 -0.89049464 0.3933075 -1.3902314 -1.3414894 0.08877052 0.1744621 0.32710013 0.51456845 0.15827966 -1.2043293 0.3697604 -2.5339484 -1.0427463 -2.602788 1.318693 -0.12564671 0.5439987 0.17125301 -0.8735315 0.71830624 0.12731253 -1.2150313 -1.3413323 1.9602693 0.3366723
*dt_9 -1.6616287 1.3218216 2.241383 2.031915 -0.13737307 -0.10747122 -1.4629806 -0.11556631 -0.5779611 0.70973194 0.30763066 -1.1277895 -0.4433471 0.101442955 -0.31792313 0.62584746 0.9123574 0.7715655 0.29673776 -0.77104044 -0.29044774 -0.020737175 -0.20511113 0.864119 1.1472017 0.3969077 0.5268096 0.9300452 0.27427235 -0.009376762 0.27061558 1.5349166 -0.71745616 1.1667602 -1.0205216 -0.029270746 1.6873605 -2.6747494 0.5198461 -1.9915715 1.4318085 -1.3533905 1.4463339 1.2386379 0.66200167 -0.44543806 0.094790615 -0.8551687 0.049235206 -1.2925265 0.8225482 0.8782424 -0.0875759 -0.029732041 0.98268205 -0.051510572 -1.2620398 -0.17286511 -1.5847566 -0.46933308 1.764287 1.5519528 -3.6318955 -0.8435693 -2.2491114 0.40179414 -0.30721337 0.31719592 -1.348049 -0.36162525 -1.6975422 -0.9601223 -0.3622578 -0.26439956 -0.7755973 0.6926059 1.0650736 0.20635812 1.2924651 -0.011088072 -0.12946945 -2.124722 0.5115444 -0.40699434 0.105004735 -0.16551976 -0.31626344 -1.1899525 -0.332005 -0.7430555 0.95127046 -0.62749565 1.7336518 1.4049498 -1.5578417 1.5278041 1.1622505 0.46102154 -0.7381745 -0.3335631 -2.0341501 -0.33812234 1.0311375 -0.15571034 0.48880655 -1.5343788 -1.3676376 0.71815914 -0.35012326 0.9440977 0.07343009 -0.61704594 -0.61283916 1.7081726 -0.13878815 -0.3995517 -0.97255355 0.18618062 0.76137275 -0.41355523 1.3604565 -0.01272589 1.0477216 -0.1298279 1.3001186 0.83981043 -2.3813891 0.27972466 2.497667 -0.41659918 1.6537973 0.5163323 -0.6401179 -0.69660914 1.1642823 0.61839306 -0.09446292 -0.1606085 -0.950134 1.3771248 1.1335845 2.376697 -0.7165757 -1.9457713 -0.17303604 0.3068518 1.4426126 1.208853 0.12075604 -1.3980103 0.67437893 0.25750187 0.72507316 -0.17139378 0.186637 0.1757013 1.9135321 0.81688213 1.0365978 1.6272441 1.0884773 0.007966808 0.7663223 -0.9338038 -0.053145394 -0.95317924 -0.31911364 -0.67333657 -0.3994329 0.15818353 0.99797314 0.48924243 1.1534111 -1.2604136 1.2640686 0.45809713 -1.3094451 0.9182725 -0.8198475 -2.922571 0.34086332 -0.11016791 -1.1296257 -1.3428369 -0.39918616 0.1650592 -1.2140863 -0.5110236 0.48978233 -1.1733449 0.32166523 1.1635077 -1.9227002 0.8016308 0.2188221 -1.0709949 -1.9609568 -0.08936681 -0.82025933 2.3656373 0.26441726 -1.7262162 -0.9613057 -0.42867488 1.0646031 -0.3087025 -0.546649 -0.123314776 -0.5779922 -0.8582338 0.009352332 -0.06426857 3.231725 -0.16310924 -0.07465053 0.11240672 -1.2471468 0.21804757 0.43314272 1.4350746 -0.19441944 -0.98247385 -1.9068772 1.7535666 -0.34536284 -0.038560886 -2.6843433 2.2795866 -2.191006 -1.3060949 1.220275 -0.6030127 1.5814283 -1.3976903 1.993496 -0.7573993 -2.153434 -1.828538 0.98460823 -0.1670819 -1.1813339 2.0973651 -0.45389706 0.16002864 1.1542113 -1.0282154 1.2405937 2.1281583 1.6705823 -1.5608734 -1.0966303 0.24717537 -0.9098027 1.949764 -0.6935892 0.9327891 1.9070072 0.22984475 0.8390911 -0.8684687 1.4544019 2.4674594 -0.17879155 0.40259165 -1.0953459 1.4851933 -2.3221183 1.4907353 0.8488118 0.038116932 -1.8595029 -1.4034431 2.1521387 -1.1119832 -0.7856549 -0.40027037 0.7970821 0.3270352 0.6391868 -1.4512702 0.31387395 0.7603135 1.3386271 -0.2592786 -0.909226 1.4691224 -0.6206844 1.3985212 -0.28910092 -0.14322652 -1.3634647 0.52909505 0.29293036 -0.22729939 0.43532673 0.91962904 -0.31111363 1.406527 1.1687913 0.7562986
*dt_10 1.1703212 -0.2638024 -2.6224437 2.9775736 -1.578676 0.7382722 1.2137371 -0.22811498 0.59573495 -0.06400906 1.0694411 -0.5714295 0.961093 -1.1254328 -0.56247854 0.838264 -0.82390034 2.7115576 -0.44044122 -0.7612182 1.0055518 0.47549403 -1.4594241 -0.6591193 1.2685144 -1.4634252 -1.3877995 0.5322579 -0.00043084205 -0.35647926 1.4726377 0.17483288 -1.7421305 1.850699 0.64623916 0.505834 0.22729659 -1.0153387 -0.5597941 -0.09449691 1.2773197 -0.17627992 1.7980311 -0.58127487 -0.51094663 1.3975854 1.5172714 1.3774471 1.3391198 -0.2551666 -0.07694724 0.55600315 -1.4765257 0.4029383 -1.8701257 1.4657643 0.6615188 -0.6789459 -1.7724506 -0.1563239 2.3928304 1.5757533 -0.6456331 -2.2193253 -0.26451075 -0.7863782 -0.24688227 -0.299991 0.6543803 -0.027797366 0.14674631 -1.1095772 0.13081077 -0.43876413 -0.71307683 0.581253 1.6271312 -0.022429463 3.2126222 -0.19562681 0.6443095 0.33615115 -1.7756747 0.07274801 1.4106228 0.7285991 -1.8254689 -1.1573648 -1.4376539 0.0062760804 0.12135876 1.3420345 0.8869717 0.86415523 -0.5148104 0.12775695 0.461072 0.2647559 0.33640888 0.6838811 0.22865646 -0.32856402 -1.6659659 -0.11743803 -0.77990884 -0.24556832 0.98880076 0.6373205 -0.3951562 -1.0159369 -0.48884922 -0.6547858 -0.19649819 -0.085834384 1.2057668 -0.89105994 -0.22457637 0.8673289 -1.0939028 0.8964013 -0.2192792 -0.1642721 1.2177857 -1.9866785 -0.78812385 1.5331254 -1.5440234 -0.6704772 0.5159196 -0.890477 1.1523625 0.0535345 0.7379369 -0.13041532 -1.1900015 0.11571293 -1.1900126 -0.3121759 -0.6464057 0.039898325 -0.031348694 -0.80082273 -0.7752667 0.013140364 0.49289986 -0.91806567 1.8121074 0.9164167 -1.5269853 -1.215998 0.97606176 0.33927038 2.2779772 -0.963886 1.6657814 -0.48829767 -0.29104543 -0.55803466 0.054883704 0.2573376 2.0454433 1.2871889 1.9448334 1.2867814 0.001058233 1.0542352 0.14120895 -2.2080348 0.6804038 1.5797399 0.67400604 0.20773728 -2.0348454 0.908308 1.23839 1.6830057 -0.9271666 -0.4195191 -1.3885835 -2.1568384 0.18250518 -0.17461142 -1.3715358 0.1338325 -0.45346844 2.5813692 -0.3339299 1.0517493 0.43982947 -1.0135674 -0.558406 -1.379031 0.7320096 3.0710127 1.9544097 -1.3741703 -1.7956392 0.950191 -1.1923419 1.1262417 -0.018824283 -0.63200104 0.7258524 -1.0531001 0.31118488 -0.55085176 0.60381895 -0.21291733 1.5495986 0.117317125 2.081685 0.0013268534 1.3135674 -0.8006638 -0.642343 -0.6203847 -0.4252676 -0.030958727 0.62493 -0.21221946 -0.693051 0.093304455 0.91817826 1.1782718 -2.099365 -0.47688138 -2.0341072 0.050732296 -0.80303985 0.6812345 -1.093818 0.1388511 0.29141182 -0.8412255 2.8921735 -0.168345 -1.0042424 1.245329 -1.0287824 -1.028777 0.4211127 1.3125851 3.018671 0.46948385 2.0148413 1.2627997 -1.5137233 0.8645716 0.48948783 1.3544015 -1.9229839 1.308158 0.6188404 -0.27767113 -1.6038029 0.50003767 0.7053434 0.55464256 0.20626466 -0.66415375 -1.2410748 -1.8374687 0.94271845 1.3379908 1.3642342 0.70844525 0.46097004 -0.7685792 0.09428103 -0.74103427 -2.0702937 0.25487244 -0.51904315 -0.6624171 2.0070527 -2.2535026 0.19568071 -1.192445 0.0761498 0.79694873 0.26480734 1.4658717 2.2229273 0.6567587 -1.021477 -0.04775642 -1.2856718 -0.5311063 -2.113027 1.2810044 -1.2955703 0.43844733 -0.5458373 1.2133654 1.0596905 -1.0080099 0.9126123 1.1318024 1.213902 -1.1507889
*dt_11 -0.31053993 -0.43491483 0.20201683 0.31402862 -0.48499015 0.6725017 -0.5503846 -1.0282024 -1.3575964 -1.3738302 0.7028673 1.0727763 0.70450467 -0.09701737 1.2319221 0.24404152 1.3182359 1.2473239 -0.38681275 0.2842965 1.7215267 -1.2418442 0.3583845 -1.003099 2.568902 -1.1448425 -0.43686682 -0.582772 1.4165919 -2.4148936 2.267088 0.62269413 -0.57785076 0.54617095 0.0777235 -0.47850198 -1.5058795 -0.57128453 0.24321567 -0.3685644 1.9074224 0.730277 0.60222995 0.6656989 1.7681112 -1.2070919 -0.28013167 -0.28124693 -0.4653782 0.113542855 0.98039657 0.56142646 -2.3708467 0.75009584 -1.1004912 1.7542685 0.5430504 -0.48570403 0.17900239 1.0044588 0.53939945 2.0549293 1.8887349 1.3620337 -0.19058803 1.5140374 -1.2682642 0.2512012 0.18474892 -1.5830796 -0.5898946 0.09716129 -1.2350749 -1.7046219 0.2729075 0.6419723 0.23510799 -0.40213677 2.2658455 0.74922633 -0.49793866 -0.2680605 0.009621004 -0.8979623 -0.6055114 -2.1890986 -1.482118 1.0833646 -0.36551312 -0.4723284 -0.3630865 0.34561026 0.16705763 0.015983088 -1.5449495 -0.6860698 1.2883686 -2.5287616 -1.3670597 1.2591485 -0.05037681 -0.8360331 1.4291792 -1.0823965 -2.4588509 0.19681874 -1.2313145 1.9132926 0.90346885 0.024524603 -0.70877504 -0.96595854 0.40565607 -1.244558 0.8889581 -0.2076945 0.2560108 1.1464068 -0.03344883 0.15081583 0.97024834 -0.048285466 -0.016946182 0.72032535 -3.0853078 -0.8033491 -2.073927 -0.763927 -0.2470558 1.1690689 -0.30801806 1.6723891 -2.5234206 1.5261956 0.2683712 -1.1235116 1.0897954 -1.0399761 -0.3363643 1.8755773 -0.89184874 2.2423954 0.7485326 -3.2838118 -1.1919883 -0.7112838 0.20805699 -0.17461216 1.2769047 0.36141914 -0.18307948 0.21906517 1.2730973 -0.39592466 1.1058505 1.1790363 1.155285 0.6195421 -0.60321206 0.28331515 0.3504847 2.3267608 0.62112814 0.66400266 1.534403 -1.5336277 0.44978204 -1.8610114 -0.12524597 1.9806049 -0.3344089 0.5332084 -1.6108749 1.3335524 0.17236446 1.1394753 -0.11821713 -0.41502535 -0.1934716 -0.18639539 -0.4753838 1.6098422 0.27566242 -3.281538 0.33863753 1.2999659 -1.8563819 -0.53488183 2.3309493 -0.50672424 -0.32142404 0.7061473 0.12955788 0.599223 0.860918 0.0854772 -1.0795273 -0.070320725 0.56341004 0.6749727 1.6000291 -0.012776321 0.39837673 0.29788053 -0.76060146 0.22318856 -0.14681657 1.8069031 -1.2845916 -0.18098333 1.0762713 0.15769023 1.7706109 1.1372397 -1.1274166 -0.017403804 0.06891746 -1.4010599 -1.5808098 0.73222375 -0.3480152 0.25386867 -0.26476473 1.7722956 0.93442506 0.28322017 0.14337249 -0.23654422 -0.1407675 -0.14852981 1.5432419 0.5939014 -1.4347728 -0.90656245 2.4406228 0.7357082 -0.9378951 -0.55874634 1.4605657 0.2977835 -0.71106434 2.5586534 -0.46182942 0.15972747 1.3842461 0.51547116 0.9460696 -0.14838596 -0.6040037 1.2539084 -2.2247977 -0.4516767 -0.22654226 0.96456426 0.13286415 1.7040113 0.6755722 -1.9479632 -0.5973546 -0.5901321 -0.6849006 0.30564365 0.583306 1.5143303 -1.6927663 0.5843758 -0.60629284 0.7855602 1.3382124 -0.07773287 -0.25550494 -1.8151723 0.59452826 1.8190482 -0.99204504 -0.1187222 -0.11615865 -0.1629896 -1.1559293 -0.74724746 -0.9256779 0.6860207 1.0481024 0.84784204 -0.7168595 1.254679 -2.4869459 -0.50047225 -1.6518126 -0.49653536 -2.7984426 0.91742843 -0.9579681 -0.5734562 0.60416156 -2.3624809 -1.6076852 0.87739944 0.34913614 -0.08884117
*dt_12 1.4126626 0.22258179 -1.4727638 1.048485 1.8717673 -0.06548817 -1.2374936 -0.6270414 -1.0446862 0.11779368 1.0615102 -2.1592185 -1.3445842 0.5065862 0.9352698 1.0675391 -0.29776397 0.64096236 -0.051523328 0.6263518 -0.71176547 -0.55626935 0.21825199 1.4694209 0.0018643897 0.3309948 -0.19405028 -1.3873379 -0.017279 -2.0263007 1.4240274 0.1305053 -1.1539453 -0.1484234 1.3306394 -2.1047435 -0.39818546 -0.97667503 0.4104687 -1.3226215 0.050308008 -0.1947774 0.91442573 -0.09774052 -0.10797355 -1.3079927 -0.18005428 0.39878598 -0.24373674 0.3269278 1.4343618 0.72876126 -2.450106 0.21418624 0.45964602 1.4216969 -0.9452045 0.1485687 -0.71785283 0.35744512 1.2299912 0.6713028 -0.7217964 0.35620826 -0.1139288 -0.45666817 -0.2465512 -0.11443426 -0.35014784 -0.21363625 -0.10636924 0.9949295 -0.5000543 -0.7731344 0.23363744 1.6107084 0.17056304 0.70873284 1.3341204 0.99456555 0.04898225 0.052771285 -0.28135395 0.32130215 1.1357931 0.483294 0.05088624 0.8950992 -1.7783939 0.28750223 1.5881294 0.30066243 0.35846907 -0.9462869 0.9340735 0.6228993 0.8265019 0.27080894 0.73171455 -0.72965693 0.6641734 -0.57724345 0.37813154 -1.1451132 1.0550413 0.4568907 0.06561118 0.35076633 0.13827106 1.6103848 -0.38120723 -0.4797917 -0.35146123 1.6435077 0.20828241 -1.1340902 -0.8478761 -0.8363303 1.7589592 0.41368097 0.6401196 0.9386036 -0.97764045 -0.50738657 0.7029249 1.3465924 -1.6631826 0.04362741 -0.00806906 0.1902403 1.7182114 1.2396697 -1.1125848 0.23151517 0.010207075 0.21374594 1.0685681 -1.4828964 -1.226815 0.9478778 0.3543517 0.4443887 1.0608065 -3.2273605 0.045040615 0.9497836 1.5737387 0.6407213 -0.2380453 0.072371356 0.28822765 -0.29679534 1.241471 -0.474404 0.016158963 -0.8112012 0.7846665 1.2045323 -0.4545041 -0.25125197 0.5055972 0.29514083 -0.352032 -0.25127456 0.48843834 -0.4048644 0.8832803 0.50538224 0.43142277 -0.92126167 0.31956685 -2.3952556 0.6220402 0.4448866 0.49188346 -0.96939623 0.9308082 -0.2818062 -1.5416441 -1.0728621 -0.6562954 0.9777176 -0.07321733 -1.3390285 -0.0041127186 0.5230107 -0.27902183 -0.4551118 -1.2931325 0.4503175 -0.48636743 0.922665 -0.066579215 1.8587081 1.8695431 0.40063304 -1.7841778 0.7633035 -0.26312143 2.3977413 0.068727374 -1.1682935 1.1625836 -2.2235708 0.88627476 -0.83666265 -1.3107848 0.515918 -0.62295675 -0.33257684 1.1675946 0.8987363 1.1491624 0.9711423 0.86503124 0.5597743 -0.23635025 -0.91925555 0.44867977 -0.799681 -1.7191125 -0.5117069 -0.0064701415 1.2319778 2.027426 -1.1892793 -0.9567232 -1.3060937 -0.97744614 0.5243289 2.2662678 0.008882564 -0.15046397 -0.1453613 1.2918233 -1.4398062 -0.2488244 0.4514242 0.8834766 0.58535475 0.6739112 1.778029 -0.5706904 -0.1502638 -1.9434596 1.3832302 0.6953426 0.7906725 -0.78264695 0.18727958 -1.9152322 0.07376877 -0.23807544 0.34699047 -0.047579497 0.42318588 0.6934128 -0.19678427 0.6530388 1.1739904 1.5147986 1.2585305 -2.2288702 0.7947842 -1.1958497 1.2581284 -1.8317027 0.6343384 0.736906 0.045762666 0.16771716 -0.01160779 -0.08467536 -0.73060936 -1.4391053 -0.8128389 -0.18600522 -0.6988154 0.48886418 1.1000522 0.5050934 0.9642214 0.22934008 1.3978525 -2.077461 1.4895818 -1.7993367 -0.69282496 -0.91126406 -0.18122405 -1.0992669 1.2847385 -0.124020435 0.7311389 0.53482956 0.5858073 1.1965846 -0.8044496 0.7924534 -0.31551382
*dt_13 1.3206192 -0.039169345 -1.3447843 1.1598034 1.9722332 -0.085516974 -1.2293471 -0.82735777 -1.0756627 -0.15785109 1.2051785 -2.2209156 -1.5234975 0.2836863 1.0706743 1.1566534 -0.46521628 0.47534418 0.11788799 0.4597606 -0.4537309 -0.227509 0.35494468 1.4316247 -0.10977915 0.58841956 -0.3460854 -1.2915583 -0.012486061 -2.2123508 1.5772423 0.13480784 -1.3265585 -0.17632885 1.188583 -1.9851092 -0.3414492 -0.49987075 0.30485564 -1.1793596 0.24415025 0.11429725 1.1654124 -0.40884787 -0.3082422 -1.3079588 0.029843694 0.30710998 -0.14836137 0.30254245 1.5139363 0.9190983 -2.4025156 0.49590412 0.34292513 1.4306461 -0.7218594 0.12045964 -0.45457485 0.36168727 1.1807623 0.7307777 -0.7702566 0.37196335 -0.17032257 -0.5908976 -0.3763981 -0.14574856 -0.44798097 -0.21952179 -0.35520726 0.9923702 -0.6517509 -0.87826025 0.31677273 1.9300549 0.2696481 1.003386 1.339006 1.1045783 0.19090842 -0.01709007 -0.4251433 0.4228569 1.4235194 0.46865988 0.022165796 0.8282275 -1.9215419 0.209073 1.3927882 0.35613468 0.43018973 -1.0032446 1.1081342 0.6398893 0.8116492 0.38876832 0.82968706 -0.7417003 0.57141656 -0.3140701 0.3065022 -1.0321611 1.3671216 0.49299 0.2606952 -0.0144942645 0.09151136 1.5962245 -0.42780948 -0.5192559 -0.52720237 1.6567454 0.19307496 -1.3461794 -0.8303059 -0.8062363 1.7023058 0.47074246 0.5804789 0.9026354 -1.0021245 -0.50805444 0.53021145 1.3034438 -1.8120532 0.12166526 0.023399511 0.12000125 2.0343819 1.3044579 -1.3796895 0.07468922 -0.06062976 0.019478986 1.1468592 -1.5533087 -1.3747734 0.8941266 0.5989518 0.6320641 1.1574904 -3.2316475 0.11654062 1.125148 1.4880358 0.9218748 -0.43045893 0.23671956 0.46110263 -0.46554834 1.0641606 -0.5986968 -0.0056377226 -0.8609221 0.94185 1.1185086 -0.50226563 -0.30240926 0.6532108 0.2646795 -0.5399557 -0.24839924 0.34275275 -0.57597953 1.2373018 0.7172273 0.4011365 -0.851186 0.29799324 -2.5038521 0.76763374 0.61175424 0.30068395 -0.88090587 0.782911 -0.2691298 -1.7498195 -1.1221409 -0.7402506 1.1280957 -0.17239632 -1.3793389 -0.14653066 0.4071105 -0.33821553 -0.5901934 -1.3220949 0.3307761 -0.4373296 1.0954951 -0.38828605 1.7779241 1.7126645 0.39001912 -1.7790648 0.65409887 0.023089228 2.1943264 0.2364298 -1.1183491 0.78829634 -2.1811202 0.86918366 -0.8171597 -1.367663 0.6039162 -0.52258897 -0.25181153 1.2657009 0.7830014 1.0676849 0.8516504 0.6904702 0.65130955 -0.30346468 -1.019732 0.17851873 -1.0641117 -1.5815051 -0.57435554 -0.0303859 1.4148765 2.1269119 -1.2679162 -1.2387267 -1.2176087 -0.97608155 0.72444355 2.5130584 0.13533604 -0.14603297 -0.12712353 1.4500159 -1.2719948 -0.32560116 0.7143999 1.0265921 0.3549253 0.5394153 1.8468368 -0.59895736 -0.17914811 -2.0023603 1.429722 0.68350375 0.68193215 -0.6460395 -0.059888747 -2.2209623 0.29227728 -0.23313141 0.4883582 -0.15691681 0.25875363 0.75467753 -0.12048019 0.6351815 0.9381683 1.6556189 1.2935319 -2.1694987 0.7182589 -1.2637359 1.4727093 -2.1136503 0.64844394 0.6451872 -0.006754423 0.14258991 0.18842596 -0.1743851 -0.7942592 -1.677625 -0.74443555 -0.044503726 -0.5301036 0.72545415 1.0549638 0.7190967 1.0623282 0.3053484 1.1350392 -2.4628134 1.6108358 -1.8353996 -0.9453937 -0.7729263 -0.33083716 -1.230989 1.2952293 -0.23817301 0.7887169 0.59709877 0.74704504 1.437259 -0.9976434 0.7344831 -0.30224448
*dt_14 -1.3688046 -0.43466964 -0.3101977 0.6857267 -0.45032883 -1.0035352 1.128245 -0.32764193 -1.5773131 -0.17432997 -1.1544195 -1.6793151 -0.9573109 0.20383851 0.29576927 0.844566 -0.07515801 1.3670188 -0.550065 -2.3014016 1.1347779 0.12490448 -0.08416306 1.2677156 2.46552 -0.8655045 -1.3645599 -0.8598825 -0.22453766 -2.6649091 -1.3229809 0.9787412 -0.16601588 -0.4606702 -0.6770891 -1.905747 -0.797359 -0.3994727 1.79138 -0.45248967 -0.22889645 -0.010843586 -1.2124519 0.22177385 0.18908937 0.26567346 -0.87866914 -0.6671228 -0.8631098 0.7075893 1.440755 -0.23954695 0.44847664 -0.40719783 0.38248846 -0.96047825 -0.5814308 0.36739507 -0.4767251 1.1496403 0.49668616 0.74095637 -1.27293 -1.1182753 2.265796 -0.14986786 -0.52741337 -0.8809037 0.060140196 -0.3208088 -0.3743163 -0.101168334 0.36545998 -1.1123434 0.54925567 1.1499815 0.012269405 -0.38932368 0.6436646 0.23221144 0.7979796 -1.6125419 1.421105 -1.0454457 -0.5981252 -0.8588594 -2.8073704 -1.7157667 0.0026844428 3.8699806 0.40348464 -0.8459554 -1.4223243 -0.6669292 0.49604243 0.37231445 1.3199891 -0.07097599 1.7529868 0.8009146 0.43455514 0.42785618 -0.86098045 -1.9251715 -0.6976165 1.7808744 0.68486494 0.2786643 -2.0685065 -0.06235602 -0.5838348 0.64849365 1.127548 0.647393 1.8694099 1.5662534 -0.41296393 -0.18066132 -0.21189785 0.44911006 1.2250655 -1.2316339 -0.6605422 -0.39937845 -0.94318485 -1.6311014 -0.013950488 0.08078511 0.6524902 0.3676561 2.4091213 1.2188128 1.6489667 1.485451 0.09838923 0.5182265 -0.34552723 -0.4914666 -0.88794076 -0.7340834 1.2832087 0.89273524 0.008553301 -2.139664 -0.5312586 1.30542 1.0317438 0.9611262 0.6141033 1.5648932 0.90017974 -1.9039397 2.3722103 -0.34235564 1.1532828 -0.45449823 0.2980849 0.52566063 0.12862578 -0.6089171 -1.8341001 1.4772602 -0.5591924 0.9198571 0.1464215 0.39518026 2.1401887 -0.52764934 0.83559597 1.5344365 -2.5859416 0.22239561 -0.69412106 0.46569523 0.11117444 0.4383643 1.2006234 -1.6634096 -1.1148775 0.41908708 -0.4246919 0.77235824 -0.5595502 0.8160825 -2.658062 -0.5567374 -0.5279939 -1.1297604 -0.025377236 1.1320183 -0.3926787 0.7279617 -0.7290487 1.9942324 1.5349935 0.18625334 1.1068536 -0.021737946 -0.24825571 1.9387852 -1.0895088 -1.0839252 0.011943582 -0.55643207 0.14345677 0.5043518 1.2368647 -0.43003702 1.1844873 -1.0541632 -0.32755393 2.3921857 -1.6468872 0.96773314 1.1994883 1.1947018 0.7902013 0.7572131 -0.06707926 0.33123264 -1.0129329 0.46576002 -0.4141617 1.6474966 -0.79050237 1.229367 -0.07562893 1.7292995 -1.3153367 1.7729626 -0.19738418 0.6408082 -2.002372 1.0479773 -0.2511908 0.5516436 -2.19734 -2.0039964 -0.5472988 -1.3111714 0.7287226 0.31866565 -0.07900915 -0.20519765 -0.36026493 0.60872066 0.69056016 -0.7890011 -1.4167635 -2.0657623 -1.6903797 0.15817054 -0.7440547 0.13165098 0.2610659 -0.88090146 -0.7172146 -0.21024881 1.7000747 1.6168942 3.6876884 1.0428623 -1.2639213 0.5195612 -1.9376581 0.8380616 0.6676489 0.39650822 -0.49440995 1.2467345 0.39706004 -1.8618498 -1.4077663 -0.8919133 1.6623039 0.645641 0.78072 0.4493208 -2.329592 0.23398258 -1.7874446 -0.13789538 1.2507591 1.1467155 -1.1662521 0.5771721 -2.188688 -0.8083149 0.97403854 -0.38732815 -1.2163554 2.674981 -0.975002 0.309156 -0.39705455 0.2886973 0.031624593 1.383762 1.382026 1.7413962
*dt_15 -2.4847488 0.8774467 -0.08983936 2.9050496 -0.8782087 -2.0718129 0.15061213 1.6244491 -0.5892099 -0.78142947 0.6663987 -0.9248001 1.5200031 -1.7443116 0.83846277 -0.7416158 -2.2150342 -0.10507215 -0.09901402 -0.30019093 0.8015514 -1.1207392 -0.30331782 0.7084631 0.38901433 1.1005349 0.42105505 -0.9761563 -1.4100643 0.110188134 -0.14934073 1.03718 -1.0066186 0.36465433 -0.9198353 -4.4724593 1.2806079 -0.6076954 1.9671012 -1.6337795 -1.484055 3.1658652 0.17473085 0.45139092 -1.4396392 2.7847915 -2.2321522 -0.28890932 0.45225728 -0.6210218 -0.53871566 0.41185644 -1.0291255 -0.6937259 0.4846407 0.7086503 -1.9012268 0.518139 -0.45700267 -1.9692656 0.17275535 -0.8486666 1.2421634 1.8296381 -0.40904912 1.2570289 -0.20672539 1.4959276 0.137574 -0.776928 0.6232588 0.80945194 0.70048773 -0.116216175 -0.31005377 -1.1520923 0.85937524 1.2175895 1.0034777 1.0349983 -0.108957864 0.45744812 0.38187796 -0.73523855 0.63293487 1.0131253 -1.7472507 -2.567958 -2.0597584 0.6204267 -1.8750699 0.8445111 -0.40607733 -1.1580281 0.83195883 -2.315164 0.37409538 1.4803296 -0.54963803 -0.9674978 -1.0882986 0.26220894 0.39931074 -0.37092608 -1.1203434 -1.5872272 -1.6593442 2.3575292 1.1347389 1.6796587 -0.97265995 -0.10462119 -1.249975 -0.1963941 -0.62548256 -0.49647492 -1.540848 -0.7820685 0.8383209 2.3370645 0.2003063 2.4335759 2.232714 -0.015070784 -1.3848189 0.86411715 -0.81824666 0.71295166 -0.6869102 -0.32836714 2.6322663 1.675883 -0.35946622 -0.18435279 0.24267645 2.5759108 0.1942274 0.16549768 -1.2125487 0.41219485 0.5569761 0.28236645 -0.6784081 -3.792126 -0.2895685 -0.102681264 1.0327213 -1.0316166 0.8242743 0.8276332 0.4527499 -0.21570058 -0.46620223 -2.1655166 -0.90903085 0.51538223 -1.3098096 2.2901015 -1.8491168 -0.4315347 1.7349508 0.00063997257 -0.31527066 1.1851716 -0.15276332 1.374578 -0.08991888 0.7006307 -1.244753 1.1120658 2.0921214 0.67982334 -1.267998 0.9795798 1.2914966 0.14877596 -1.4920244 1.9303281 0.9488879 1.0119511 -1.3100603 0.38038847 0.2727748 0.38308805 -0.1784883 0.13709961 -0.7018748 0.30732018 2.0167558 -0.21425755 -0.40178165 -1.0381764 -0.19191757 -0.7038601 0.057740703 1.3262476 0.10807191 1.2051907 -0.024772327 -1.0165344 0.909901 0.5781687 1.8579473 1.1260203 1.9473375 0.056834407 2.4935503 2.216081 1.6855053 1.066174 0.333891 0.8741983 1.8819774 -1.8480529 0.7943986 0.54563713 -2.4304137 -0.68945515 -0.16083473 0.6564304 -0.24867742 -2.0782428 -0.74955755 0.008121897 -1.7758893 -0.7945839 -0.0019478895 0.3358446 1.0874048 -2.758601 -0.3564957 -2.4873962 0.16711186 1.4739393 2.828619 1.871992 -0.9560752 0.10514339 -0.36079282 -2.1287165 -1.4181801 0.017452043 0.4694513 0.570017 -1.3389045 0.12677379 0.47730538 0.95149386 1.1734592 1.4193364 0.10529112 -0.12105863 -0.44210795 -1.4233289 0.23317957 -1.2232764 1.1382767 -0.6738903 -0.7506682 1.5812457 1.8646896 -0.63009423 1.5365885 0.10040393 0.3839546 1.2216232 -0.017823026 -0.65359384 -0.82598305 -1.4083622 -2.5960994 0.520044 -2.6868844 -1.7663476 1.1611167 2.6845896 -1.593356 -1.8099815 -1.7016064 0.11844268 0.755715 -0.014238193 0.039383996 1.1628021 -2.33329 2.5824354 -1.2654098 -1.9183079 -1.1933241 -0.013739647 -1.3587424 1.3834509 0.13233645 -0.58078164 -0.37950906 0.56232846 0.4367655 -0.09766789 0.89113677 -0.5303107
*dt_16 0.009065752 -0.21643606 -0.066662185 2.9008386 -0.13900319 0.89470106 -0.9123988 1.8801976 1.0508391 -0.30037317 0.037655033 0.15781684 0.112650394 -0.67332655 0.5934449 1.0943063 -0.7249804 2.0995297 -0.22487599 1.4484001 -0.50796366 0.35953122 0.8814956 0.47828656 1.0255432 1.2030028 0.46027386 -0.25331828 -0.27260536 -2.1607058 0.9006844 0.88992405 -2.172089 0.6883373 -0.7922743 0.5812491 0.63222855 -1.5838743 -1.2089454 1.7544785 0.97107077 -0.512803 -0.7398688 -0.83126205 -1.0624119 -0.40861163 1.2011222 -0.18772192 1.1695806 0.52700573 2.3117256 1.6748359 0.5253371 0.59602576 -0.338575 -0.48054346 -1.6064396 0.8304258 -2.7329557 1.4089605 0.55151486 1.2655102 -1.5865282 -0.6360219 0.13136649 1.2338542 -0.8683065 -1.0412316 -0.48562157 0.015366448 0.315789 -0.5521092 -0.39252883 0.34522536 -0.43393546 -0.06663128 0.20738854 -1.5146418 0.98576736 1.4710089 0.3002796 0.7891419 0.17518404 -1.0180641 -0.17556104 0.23962471 -2.515481 -0.14791077 -1.0688059 -1.8114556 -1.6423968 0.40623796 -1.211411 1.186138 2.4555025 -1.3903056 -0.46956638 -0.1600783 -1.9826996 -0.034897625 0.29220784 0.020736013 -2.176653 0.35183954 -1.1551125 -1.851236 -1.3771138 2.7186975 0.1436827 0.0851314 0.059010297 -1.5323701 0.97638494 2.0684495 1.4083097 -1.1595261 1.3063365 -1.0864043 1.0345243 -0.3275859 -0.98959446 0.24285656 0.120324895 -0.3077448 -1.3832241 -0.65448076 -1.0951424 -0.52069694 0.69361246 0.3189514 0.10170793 0.3902201 0.7567559 -0.59193957 2.0079255 -0.3115172 0.30143097 -0.8910768 -2.387911 0.14408635 0.28478074 -0.33866054 -1.7381546 -2.750144 -1.2456962 1.2882318 0.26236072 -0.009043893 -0.2887369 0.35254565 1.3693644 -0.3198196 -0.15899412 -2.3395789 -0.3365461 0.75582814 0.9883735 0.23902166 -0.3687405 1.3732996 0.8162805 0.35629785 -0.05044656 0.693352 -0.16931285 0.40216348 0.18062481 -2.1443691 1.55532 0.9291583 2.1421406 0.5886975 -0.044612657 -0.5091784 -0.103417546 -0.14618304 3.141452 -0.89851683 0.86248493 -0.5131875 0.55351055 2.1291242 -0.14304063 -0.7159944 -2.6577637 1.5577824 -1.0607404 -0.03603182 0.019762143 0.4511918 0.38588 0.237163 -0.6058895 1.1072636 1.4985741 -2.3781662 0.02765569 -1.5763478 1.4045308 0.44564563 -0.59877783 0.8502285 -0.6561814 -2.0287404 2.0673385 0.40321833 0.3140021 -1.8194997 1.2085205 1.3041922 -1.4822952 -1.4214569 -0.7933065 -0.07436282 0.38175753 -0.6771477 0.90305245 1.0164176 1.0784986 0.8521354 -0.047465548 -0.021702502 0.049104877 -0.80879134 -1.1729517 -1.2401463 1.2736744 0.49730012 0.3108131 0.9481746 -0.5151326 -0.42811292 1.1892127 1.3875685 0.68458843 0.025083086 -0.40566233 0.52092344 -0.11979568 2.1112192 -0.28563014 -0.7883853 -1.0975765 0.75140095 1.047998 0.63293 -0.28830203 1.8846734 -2.6309555 -0.78941554 0.3639697 0.25907364 1.2934357 0.36536017 -0.83001745 -0.2289664 -1.1345849 1.545974 -0.6156488 0.9108715 -0.9123017 -0.25075495 -0.37704897 -0.085311286 -1.7275983 0.58671886 0.8566781 2.8320994 -0.26222643 -0.66751796 -2.3836493 -0.7444177 0.5054699 1.713652 2.7334862 1.1300845 -0.54095817 1.5192913 -1.2732965 -0.16952047 -0.7233701 2.0423317 -0.37986508 0.9271705 0.12848091 -0.28021044 -0.29445615 -1.179229 -0.42969918 1.1303519 0.43647167 0.37070307 2.0717337 2.6137352 -0.8612606 2.3546412 0.23137398 -0.2734002 0.5029858 -1.1979569
*dt_17 0.1734968 0.7537741 0.74637854 0.15473685 0.78024846 -1.0358546 0.009940613 -1.0686114 -0.052320234 -3.2071352 -0.09000922 -0.55293393 0.92463666 0.52617097 0.2951529 -0.80160725 2.543887 -0.44334283 1.0793911 1.6583017 0.11240449 -1.0692488 0.3141106 2.3559487 2.8682566 -0.56294066 -1.9872864 0.8309623 0.6898415 -1.0931411 0.008967923 -0.7659709 -0.54945624 1.4436742 -0.80264544 1.785702 -0.28171813 -0.054339964 -0.20149937 0.37118226 0.75149864 1.2206937 0.2016819 -0.006142919 1.0691569 0.27254635 -0.87379366 1.0861952 -0.1298072 -1.0280817 -0.41031507 1.3797071 -0.7399062 0.81874025 0.4845882 -0.45702502 -2.086641 0.9182995 0.377612 -0.20954324 0.541192 1.8084879 -0.58021086 -0.7159467 0.9595875 -1.534763 1.1741191 -0.20893309 -0.6230028 -0.28593162 -0.66181964 -0.39037883 -1.1432693 -0.8191906 0.18921448 0.31566355 -1.2687248 -1.9785435 -0.19576336 1.3425566 0.27512965 -1.8190513 -1.7736502 -0.0933394 0.80927104 1.1736343 -0.1709077 -0.59539086 -0.5497146 -1.4336566 -1.1837168 0.1366984 -1.0865366 0.09881963 0.04267335 -0.61068994 0.8962492 -0.2522165 1.9966486 1.0495701 -0.26793858 -0.14490233 0.09400029 2.1941695 -0.4083443 -0.3787401 0.6896926 1.3150516 -0.845941 -1.0287052 -0.86282223 -0.61272234 2.4746785 0.5622946 1.1890608 0.19339068 -2.6668758 -2.0345385 0.8378753 0.061773907 -1.0053974 0.9876012 -1.1364563 -0.8002699 -0.18764926 -0.062218517 -0.13400051 1.0892144 -1.781853 -0.19271174 2.9048772 0.7734164 -0.40398064 0.83731526 -0.13879551 -0.6562117 -1.1597673 -2.3951094 -1.9921325 2.3498423 -0.13883173 0.5733922 -1.5338519 -1.2999513 -0.4071004 0.7641591 1.8747553 0.47977763 -0.8630134 0.2595826 -0.552358 0.57638925 0.090353645 0.108584315 1.0292974 0.17758599 1.8270417 -0.9028284 -1.4536707 3.3719244 1.3076991 -0.908391 0.12743859 2.0203235 0.15855126 0.8071251 0.9976251 -1.2070403 -0.46412545 0.21767664 -0.24451001 -0.5561546 1.603436 -0.7532667 -0.1477596 -0.43651474 0.9007181 -0.5120364 0.80424035 -1.0356786 -2.0231557 2.002802 0.96429086 -0.14667523 -1.099109 1.0659952 -0.32285118 -0.56832117 0.9022223 1.4183483 -0.24056883 -0.1311784 0.4106407 0.89528424 -0.020187698 -2.2796836 0.82383645 -1.8719301 0.31478095 2.2442021 0.06923523 0.30115876 0.3636699 1.3329979 -2.0116165 -1.2133454 0.6165974 -1.481798 0.8014114 0.9866528 -0.99368584 -0.703345 2.6389742 0.015247513 -0.4105945 -1.7081463 0.34470487 -1.5131664 -1.6372443 -1.3745474 0.60996276 -0.31780082 -0.472963 0.40137362 -0.6299555 0.29804885 -0.5098173 2.3838668 2.169407 1.565697 -0.35083553 -0.33406338 1.0815053 0.8276146 0.045541417 -1.4096233 -0.5703305 1.0123066 -0.03200417 -1.1413987 1.5982574 1.7116644 -0.84195876 0.7527833 0.73498666 0.91853935 0.6579373 0.90173453 -0.99084216 -0.5242812 -1.0036026 -0.017788969 -1.5454466 -0.5131959 0.60555595 0.3665908 2.9218173 0.09108265 -1.6974939 1.5943342 0.9445325 1.8359393 0.10915363 -0.12560403 -2.1512911 0.7407359 -0.32322046 2.2980313 1.5689065 0.38908872 -1.7633425 0.0016716524 0.07658993 1.3706229 2.3285046 -1.2528225 0.6173479 -1.8091735 0.6187853 0.9071634 1.3069063 -0.15689413 -0.066802196 0.59740615 -1.5280776 0.7810826 -0.046504747 0.106153406 0.7745325 0.14148052 0.5613849 0.17012137 -0.03850564 0.89981425 -0.848654 1.2787565 0.9077839 0.071622685 0.006656953 -1.1613721
*dt_18 1.40066 -0.7739979 -0.36137652 0.6516323 -0.8467024 1.5921137 -0.74439085 -3.1100457 -0.6105006 -0.9965831 -1.1287167 -1.0164021 -0.14645441 1.07987 0.21898586 0.51273125 0.18417002 2.7943113 -1.678727 -0.25368294 -0.44577673 -1.0889468 0.82570654 -0.70657444 0.88450676 -1.9292431 0.0009220971 -0.57427984 0.42311996 -1.1693183 0.665436 0.028359752 -1.734069 0.84474015 0.19732723 -0.30693227 -0.56182456 -2.0358033 -1.8930182 0.12867387 1.4059078 -1.2756209 -0.37094864 1.0840558 0.118246675 -0.11641927 1.3878974 -1.5331243 -0.46311176 0.97782594 -2.0087135 0.5409138 -1.2138696 0.60559493 -0.39119446 -0.9923676 -1.033291 -0.898571 -0.44572592 -0.38349807 -0.24802953 1.6627022 0.12111941 -0.46367785 -0.514199 -0.33452147 0.7737854 0.3213873 0.3757429 -0.9126307 -0.39461172 0.692596 1.7045074 -0.112661846 -0.5448613 0.1550488 0.5770702 -0.29979488 0.09685742 1.0297058 0.87631524 0.013433069 0.6053558 -0.29817984 -0.22536601 -1.3480818 -2.3135188 -0.36903417 -0.782198 -0.48576498 0.280455 0.46900097 -0.9718552 0.25215226 0.19660693 1.2314115 1.1490409 -1.3470777 -0.4978318 1.2585442 -1.7554041 0.537768 -1.2935592 0.7127035 -1.3139676 -0.15952307 0.42155746 1.8332309 0.3238055 -1.3056432 -2.393385 -1.3487433 -2.0548265 -0.0760384 0.5495538 -0.54462004 -0.09565152 0.6705896 0.62748027 -0.07465097 1.0888742 -0.16021313 -0.6917774 -1.0419242 -1.277876 1.8370038 0.22013533 -1.9269934 0.06701574 -1.3186849 0.9792223 1.5215569 -0.8643629 0.5829901 0.554618 -0.5418028 -0.36541566 -0.4764292 -2.551649 1.7587296 0.6719421 1.1880193 -1.052103 -1.9674165 -0.12959477 -0.19789216 -1.0315356 -0.8658145 0.04054481 -2.6290977 0.4214569 -0.5086988 -2.345106 -0.13326055 -0.7539352 -0.68907326 1.4451097 -0.7361586 0.34096175 -0.12332339 0.35305655 -1.437689 0.90186816 -0.8787853 -0.6751978 0.8118873 -1.8157266 1.8410333 1.2232451 -0.22073436 0.17272502 -0.07587926 -1.1081185 1.2865933 0.26154736 1.2847122 0.7068283 -0.82325846 0.5048839 0.519341 -1.0958369 -0.44355327 -0.20188648 -2.8963199 -0.99830514 1.0966624 0.08520124 0.3416027 -0.79227036 -1.3280181 -0.006940638 0.6146608 0.13027696 2.099176 1.6794833 -0.31680474 -0.3779983 0.08169826 -0.02800375 3.0960097 -1.6947347 -0.6739424 0.8215511 -0.80677986 0.027060973 -0.79380345 2.1025162 0.7962721 -1.5909588 -0.65878487 1.020163 0.5836373 0.7810511 1.4012889 0.7833596 -0.51882595 -0.60294074 -1.8569895 0.42515457 -0.46164513 -2.4445171 -0.5789151 0.20160869 1.331216 0.5646015 -1.6985328 -1.2951413 1.2982409 -2.3095994 0.27324113 -0.28249773 -0.005038528 -0.24417567 -0.040972624 0.11572276 -0.61695266 -0.37546116 1.4874856 1.5962523 0.7015294 -0.5283073 1.4536449 -1.7523074 -0.15277497 -0.008693503 1.4657046 -1.4620345 1.8378 -0.7769245 -1.0841981 -1.4136437 -0.051634192 -0.4958319 -2.462752 -0.3907555 2.1755135 0.4791931 -1.503617 0.3000917 0.18178214 0.336719 0.90144914 -0.16953065 0.1553192 -0.398851 1.6609713 0.47726667 1.4124899 -0.08659002 0.5522434 -2.2284946 0.40797952 -0.3954141 -0.5304645 1.1677954 0.7358051 -0.7818177 -2.903412 0.27358443 0.26985916 1.7515646 -0.4077051 1.4813211 -2.1783907 -0.33753565 2.3959777 -0.52277035 -2.8239598 0.21563853 1.0871092 -2.6042035 0.16781273 -2.017393 0.7544061 0.8210838 1.2265412 -2.2023313 -0.45872167 1.1122973 0.5800859
*dt_19 -1.9398224 -0.28870237 0.85835373 2.6021366 -0.41931185 -1.4590724 -0.45858353 -0.565359 -1.394338 -0.45181245 2.2046306 -1.0330381 0.99535304 -0.27126965 -1.5672308 0.15068494 0.7054837 0.58412784 -0.44521016 -0.31658643 -1.9194913 -1.1958014 1.2037326 0.6608281 0.21942534 0.5813913 -0.45611605 -1.4790982 -0.26651123 0.19880882 0.7534635 1.7080108 -1.1797833 0.28813535 -1.2178576 -0.7426532 -0.013279122 -0.40030283 -1.1360154 -1.0218828 -1.3752071 -0.53645474 -0.96939844 -1.5870864 0.0012666285 -0.0006229257 0.88196325 -1.8091766 -0.2967479 0.37690315 -0.82710195 1.3450677 -0.3561293 0.16641836 -0.3741407 0.11767644 0.47983178 -0.5143676 -0.45989972 -0.39072177 1.2900655 0.1744839 0.053721443 -1.8686687 0.1529347 -0.4251128 1.9700351 0.3010865 -0.16944607 -0.80455077 -1.1798081 0.4195904 -1.3155339 0.40256917 1.8354138 2.007833 0.92248034 -0.29495478 0.1578067 -0.9474847 -0.007585848 -0.58409303 -0.05998517 -0.9425896 0.26321998 -0.43400207 -0.3919471 0.03239051 -0.91756546 -1.7580976 0.93056107 -0.253459 -0.58682585 1.0130345 0.8507223 -1.7948332 -0.3485478 -1.3261887 1.0042584 -1.6404219 -1.2626611 -1.3653184 -1.058009 -0.79280573 -1.586845 -2.228012 -0.41741353 2.5047934 2.0698338 0.9052201 -0.73486626 -0.1061438 -0.1734035 0.5387147 3.2949543 -0.23437008 -0.885577 -1.3492637 -1.4292637 2.682332 0.41374984 -0.82850116 -1.8532465 -1.194828 -1.5621153 2.2384906 0.8376333 -0.8316127 0.61871994 -0.03139669 -0.61300725 1.1806175 -1.0247782 0.62298685 -0.39428836 -0.32594183 -0.9465162 -1.7452092 -1.9895288 0.5885808 -0.19449845 0.2236641 1.4348841 -3.5676715 0.63579905 0.8936371 -0.50045055 -0.047201138 0.5523574 1.9068815 -0.028491888 0.46509418 -0.8120476 0.03428895 -1.2878078 -1.4247941 0.8199771 -0.18620314 -0.0296937 1.3046963 2.2394805 0.6217302 1.1895424 1.3090909 -0.12568146 -0.18159454 1.64291 -0.87827 -1.2620939 0.6443048 1.4394073 -0.24886721 -1.1758736 -2.4130287 1.2986126 -1.4747444 -0.46879435 -0.5650758 1.271771 -0.49982056 0.9904314 -0.22717014 -0.8719617 -1.1886386 0.1199247 1.9186201 0.07806728 0.72196156 2.0778444 0.76807684 0.0728778 -0.8758417 -1.9979187 1.6695211 1.0101148 -1.3739564 -0.6793448 -1.7659531 0.42377904 1.9230182 1.0509727 0.51496035 0.60875976 -0.9518417 0.926934 0.007985776 1.6672615 0.49273443 1.378002 1.6243144 1.5239083 -0.22567236 0.11313879 0.67233294 -1.1773803 -0.760921 1.0227355 -0.085679084 -1.1118336 -1.1043348 -0.6279305 0.15607724 0.4023958 -0.29167426 -0.44993404 -0.46404952 -0.63371277 1.3313905 -0.9014042 2.1983593 0.607019 -2.6306598 0.011276037 0.034583677 0.2506786 0.9204654 0.09671593 -0.10623584 0.21993518 -1.369714 0.91084987 -1.7197814 0.31744027 1.022201 0.16229856 0.3278589 0.271584 2.9651418 0.21669835 -1.0276574 -2.2975087 -1.512644 0.100367956 -1.6624638 1.3490485 -0.34949872 -0.5346413 -0.3332229 0.040372092 0.29542932 -0.0015051086 1.0432491 -1.4554693 -0.8650682 1.0608296 -1.260871 -0.3455417 0.9905838 -0.20266654 0.11126847 0.2804427 -0.37017602 -0.41813302 -1.6375291 0.28988945 -0.027191455 0.8617152 -2.4864368 0.86585706 0.662018 0.5925853 1.0017395 0.30244625 -0.5256632 -1.1033332 -0.031498894 -1.5003442 -1.6346391 -0.06927794 0.4182381 -0.93275994 0.7979282 -1.8164892 0.59934914 1.3442448 0.18225022 -0.2728784 1.0193112 0.8392615 2.0217404
*dt_20 -1.206368 0.07132128 -0.7819196 2.4683712 -1.5605731 -0.98575824 0.8101353 -1.6186483 -1.64007 -1.2243305 1.0309169 -0.43595153 0.78709257 0.009878323 0.12974781 1.073394 -1.9453114 0.8592339 -0.18184161 0.3809888 -0.23523852 2.1649158 -0.6596068 -0.09367433 0.47243193 -3.2911026 -0.31323653 -0.16401249 -0.08821899 0.22466308 0.23617579 0.49730512 -1.9151269 -0.08463676 -0.81708634 -0.73700714 -0.025202736 -2.3521037 -0.09720127 1.9560671 1.4534123 0.86618984 0.33342856 0.3180091 -0.33158877 0.21373934 -0.22193214 1.2887512 0.90704024 1.2887506 -1.1670722 -0.7251244 -1.4793646 -1.2957933 0.4675911 0.45553488 -1.5221405 0.46759167 0.23714809 1.7752893 0.8550383 2.4972403 0.38748038 0.18928689 2.2228558 1.7463914 -1.1775445 1.4114993 2.1454947 0.53851676 -0.023318266 -0.10610517 0.0064136777 -0.6520781 0.5522418 0.9944698 1.6078516 0.35453492 -0.11593385 0.5710105 -2.3363826 2.0334554 -0.29236385 1.2493321 2.4602876 -0.7858945 -1.49839 -1.2438642 0.9225294 1.909839 -0.3302242 0.26802397 -0.07986795 0.9308608 -0.15138002 1.3520943 0.49011847 -0.2278083 -1.2182834 0.23323356 1.1588885 -0.98854953 -0.5331525 1.0339282 1.4748772 0.30500174 0.16989468 0.03721622 -1.4457749 1.9016142 -0.004537084 -2.7502556 0.014294361 -0.6106971 0.8408788 0.23261839 -0.02472591 -1.1066092 1.5562133 -0.73252934 -0.8082344 1.3636557 0.21983615 2.2349765 -3.2891738 0.45013234 0.0885343 1.2685627 1.6511576 1.0821863 1.6013161 0.6732092 0.5202153 1.593824 2.9883213 1.2768406 0.07533026 -0.31270286 0.2395681 0.17885868 1.0120006 -0.7689524 0.93773687 -2.012529 -2.5577543 1.8196139 2.3431587 1.3174212 0.9366573 0.67572236 0.115867235 1.7461545 1.262264 -1.131844 -1.853979 0.8584358 0.8721727 -1.555979 -0.1885698 0.41080675 0.44529167 0.28177628 -0.20043218 2.4779506 -0.96418804 -1.3641866 -1.8294691 -2.0346673 1.5537026 1.9382784 0.28000385 -0.9770524 -2.183679 0.48357648 -0.09143914 1.059452 -0.69288665 0.4322408 -0.553239 -0.6726851 -0.7788054 0.4884076 -0.6585821 0.22987925 -1.4931631 -0.8309069 -0.43939567 -0.27982134 0.92357546 -1.4613115 0.025533333 -0.7348419 1.4588939 1.0147843 1.6968626 -0.23252939 -0.6315662 0.17564115 -1.9040267 1.062236 0.9756885 -0.13906214 0.6950222 0.49588156 -0.39282233 -1.3683641 -0.3375356 0.8106673 1.7855979 0.74335706 1.2247177 0.31763813 2.145115 -0.447293 0.6722009 0.008905437 1.550536 -2.1110768 0.35842186 -0.05442517 -1.5797075 -1.0075631 2.1636887 1.3954383 0.20363036 0.23835082 -0.5812402 0.27663505 -2.7283828 -0.16876125 0.286082 -1.6716179 1.571285 0.1122395 0.06558207 0.050075527 -0.08573904 0.093140826 0.6217338 -0.3311119 -0.24106608 2.6530206 -0.21638325 0.93379825 -0.021540206 -0.32071957 0.6442764 2.42842 -1.7555745 -0.0017002769 0.9944575 -1.4786265 1.0403407 -1.1140438 2.2322261 0.59676147 -0.0767817 -0.7303913 1.5430235 -1.8987519 -0.15243293 0.20141968 0.9447501 0.902526 -0.13265495 0.92972195 3.211617 0.6496009 -0.5476242 -2.9056308 -2.0499592 -2.3405318 -0.15875995 -1.7633786 1.9877115 0.84236884 0.41910213 -0.67494565 1.1074421 0.51518047 -0.5145014 -0.15558504 0.10006173 0.36797932 -1.3532299 0.22222154 -0.60772073 -0.72628075 0.28848714 -0.42823172 -0.47882485 0.38790378 0.79362375 -0.69101804 -0.7749775 0.74406797 -0.5756142 -1.5687027 1.8296422 -0.37817937
*dt_21 -2.0176659 -0.47134724 -0.97161007 2.3121812 1.1753006 -0.710714 0.6616288 1.0617523 0.08821692 -0.095264114 0.4881161 -0.700338 1.0092373 -0.081914015 -0.48459527 -0.038404766 0.4038487 1.0306628 -0.1314891 0.2116858 0.28453177 -0.6771535 1.4216087 -0.0429848 -0.35547262 -1.8274504 -0.99310666 0.33731633 1.1040492 -1.618947 1.5464646 1.1786922 -1.5090706 0.73030907 -3.1482718 -1.4570712 -0.7779923 -1.5961306 -0.7274196 0.29059914 -1.3504018 -1.6958804 0.6916569 -1.445891 0.7071311 -0.2613351 0.11037951 -0.8196379 -0.43340108 2.0013635 -1.3941251 0.1814518 1.2683496 1.1906446 2.3925526 -0.5366259 -0.33293027 1.1771306 -2.0450947 0.5489461 -0.50425434 -0.054110616 -0.8441664 -2.0173042 -0.25249347 -0.06368007 -1.6615552 -0.5846053 0.28754154 0.35967654 0.4899388 -1.3486549 0.6888944 -0.02781237 0.42370632 0.7096197 -0.14314415 0.4367801 0.9382561 0.051296297 0.060466435 1.101598 0.602445 1.4473528 1.6584926 1.5840346 -0.91829276 0.7954367 -1.8576984 0.67646194 0.40398398 0.4860994 0.21319847 -0.6582972 -0.557458 1.6921922 0.51946753 -1.7184576 0.09325586 -0.5852541 -0.38982135 -0.41366535 -0.1040183 -0.7350759 -0.96150905 1.5215539 0.2645993 3.105544 0.6812086 -1.046722 0.27094683 -0.05307553 0.029677425 0.52023363 -1.0733597 0.16378166 1.0684972 -0.057237066 1.1241226 -1.1469066 2.619577 -0.3936356 -1.0261141 0.41598028 -0.5209813 0.81757903 0.4639004 -1.6334552 0.46721423 2.9639127 0.17778258 0.12043844 0.31449345 0.42221543 0.75875413 0.11616327 -0.48664743 -0.7345697 1.1385 -0.6882918 0.51844895 0.53380865 0.30318967 1.0223967 -1.5664971 1.5018309 0.802385 1.5295775 1.8414828 0.71761763 0.46253505 -0.33032325 -0.8989708 0.6354172 -0.8165877 0.73018515 -0.41363093 -0.76139957 -0.022765277 -0.3239042 -0.7085739 0.5437407 0.32099155 0.3892716 1.5218676 -0.1819197 0.6403278 -0.0640052 0.052501876 0.24490912 -0.27642897 -0.27393553 0.49869066 -0.82785213 -0.5992494 0.1025385 0.9078974 -0.051538758 -0.98261493 -0.6476542 -1.6506253 0.6484714 -0.59168416 -1.153298 1.8234673 1.588392 -1.1364897 -0.9262842 0.81476974 0.16044001 0.0007198139 -0.8559016 -2.4554083 0.5966519 0.5272243 1.348904 -0.32833344 -0.9307989 -0.26691344 0.4704323 1.7267982 -0.4857607 -0.9571586 -0.9311478 0.55501586 -0.2569179 0.6252611 1.4075494 -1.4266905 0.18545383 0.06160724 1.0190301 0.6959581 1.5128071 0.7565147 0.58403033 -1.0755591 -2.0963404 -0.23666015 -0.74766654 -0.28502992 -0.23765735 0.22861078 0.5242093 -1.4306123 -1.9496882 1.0162107 0.2294867 -0.844405 -0.73204494 1.9526383 -0.13523196 -0.0533751 1.0276408 0.6149157 -0.41793144 0.6415087 1.3735129 1.1504115 -0.6797371 0.15925534 1.3931798 -1.0477719 -0.0562529 -0.76290876 -0.2670714 -0.5302099 0.59774464 -0.9720853 1.5129199 -0.93131435 1.4931626 -0.6112282 -1.1122919 0.29011026 2.3335876 0.7651703 -0.47429594 -0.8445882 -0.4602572 0.48754352 1.5889564 -0.45644507 0.27889636 -3.1037407 1.2465886 -0.22899665 1.2161336 0.47498968 0.5976873 -1.6630006 -1.645274 -2.5451546 -2.3388329 1.2284158 -0.35869768 1.6342126 1.2307267 -0.7650483 1.3520384 -0.77254486 2.100286 1.0160561 0.60585624 -2.1409478 2.916425 -0.8980531 -0.49518853 -1.4473473 1.5050331 0.31022152 -0.57481146 0.5697325 -0.18538198 2.5648022 0.96577233 0.5308047 -1.2194579 -0.7074886 -0.33047575
*dt_22 1.5099902 0.73947424 0.33612922 1.2189087 0.27354136 0.44845706 -0.1970689 -0.21475428 -1.8483741 -0.8357725 0.643983 -1.9000565 -1.2985773 1.2414442 -0.99009633 0.9273182 -1.2943052 2.559138 -1.2713715 -1.7307563 -0.60127145 -2.3637576 -0.13858388 0.3312732 0.38656494 -1.0708845 -1.6736246 -0.5323423 1.6875247 -1.6330034 0.083006926 0.43964607 -1.4660394 2.2258344 1.5818273 -1.2879481 1.0470932 1.1824416 -0.4947671 -1.5634595 1.1089492 -2.7558248 0.13696083 0.30634725 -1.0705158 -1.3511933 1.9682792 -0.98089373 -0.17736845 0.86853325 0.7616526 -0.13582265 -1.1850874 2.0158887 -1.3911681 1.3023996 0.82245743 0.17735164 -1.6274432 -1.133301 1.1075883 0.90547055 -0.99175 -0.27917483 -1.2967452 1.9439267 -0.6004711 0.1843464 -0.8024632 -0.33178356 -2.5772514 1.0531507 0.0812037 -1.9150516 0.45113626 0.3904896 -0.061145812 -0.79485244 -0.32762283 2.3525524 1.0116148 -0.47394755 -0.18034308 -0.888848 2.1159687 1.1081337 0.44736445 -0.65042406 -0.8840297 0.071703166 -0.14272457 0.61270463 -0.2968766 0.98925 1.0569612 1.3594449 -2.1039076 -0.4291106 1.0630567 0.26942527 -0.7801625 -0.37886906 0.08034145 0.48888332 -1.8247138 -1.2166673 0.354864 0.72917134 0.47139522 0.23388787 -1.0001363 -2.6739073 1.3291339 0.15403561 0.91489816 0.03201309 -0.707979 0.14011452 1.973043 0.7624394 1.368993 1.2358173 -1.7951802 -0.6844359 -1.2277111 -0.9990234 -0.617132 -0.23264712 -0.020219892 0.5242574 -0.5277935 2.3676746 -1.542792 1.1137497 1.1000981 2.5008347 -0.8800898 -1.2909425 -1.1909374 -0.2965873 0.039100252 0.40165326 0.88215584 -1.671643 -1.1155624 1.5759131 2.1072068 1.3019992 1.1640909 -0.40255618 1.7954425 -0.76930267 0.6716824 1.3712906 -0.32425648 0.015141869 0.18469341 0.6292699 0.95404625 0.5386512 0.8417817 -0.47925925 1.9157965 -0.19474898 -0.09310778 -0.24842751 1.1208818 0.8040829 -1.1767031 -0.5007548 0.09946468 -0.12610902 0.051279835 -1.1126692 1.3138169 1.04477 2.61335 -0.9126819 -1.1725321 0.23127967 -1.1520911 0.3203407 -1.5205715 1.4006599 2.13954 1.8980154 -1.3727019 0.4175223 0.73928976 1.486456 -0.15487832 1.4548081 -0.7573813 2.7365427 0.008772311 -1.6522363 -0.40821493 1.3753805 0.0398238 0.7506352 0.03390246 0.5240348 -0.28230473 -0.337429 0.874912 -1.0547448 0.9801685 -0.038341947 1.5318568 -0.6234751 -0.8957589 -0.86000586 -1.4314502 1.4956691 1.0440146 -1.4829329 -1.2381741 1.3881793 0.34678456 0.0298808 -0.26144403 -1.7375312 -0.07134146 1.3945438 -2.2857056 -0.86749613 -1.3098212 -0.078927636 -2.1416216 -0.3785746 -0.24021912 -0.48848397 0.030731652 -0.67464775 0.009320406 -0.31397623 0.5909613 0.49358493 3.1495407 0.057978038 -0.046611775 1.1305599 0.23635845 1.0976846 2.8837612 -1.0305623 -0.32382256 1.0026337 -0.78298324 -1.6430577 -2.0623035 -0.5985708 -1.9604378 -1.8288594 0.827464 1.2718467 1.3130555 0.11912904 -0.10688582 1.4312885 1.9304407 0.07555368 -0.15827718 -0.36718777 -2.5210323 2.0575092 -1.4284693 0.38598767 0.28727078 0.41021392 -1.1817101 -0.11825249 0.7636062 0.7677363 0.7004129 -0.20292327 -0.96741074 0.6137322 1.6501548 0.45183775 -0.65250826 2.5802045 -0.7220596 0.41939154 -0.065031864 -0.66301346 1.1790687 -2.8998153 -2.1683145 -1.2254336 1.2043664 0.4493485 0.2559159 0.7526351 -0.29458457 0.87836385 -0.1548759 0.44103223 -0.059255105 -0.2565995
*dt_23 -0.5324838 0.25283125 -1.2944676 0.7877326 -0.43478805 0.79509 -0.7717462 1.1357073 -0.21975654 -1.021506 -0.66282856 0.077488504 0.71776915 1.187134 1.793257 -0.362579 -1.1145048 -0.8260131 0.32112655 0.6126286 -0.56711084 -0.9555783 1.5121588 1.0236712 1.3135005 -1.0257648 -0.8606996 -1.520731 0.65476024 -0.48634923 -0.16030207 -1.0501562 -1.2062235 1.916751 0.6926233 -0.49860218 0.7436219 -0.3567002 -0.48695546 -0.88035727 -1.7019683 0.3981904 0.04901868 -0.5616825 1.2371575 -1.0322536 -0.49983665 0.3840171 0.66424125 -0.02232586 1.2168684 0.091690324 -0.975235 0.75473076 -0.93180287 -0.68385667 0.73294467 -0.5254686 -0.8751166 0.03886722 0.59812725 0.5675497 -0.68800026 -0.5821247 0.9041234 0.5888435 0.0031732551 0.9476574 -0.777768 0.40077424 -0.5903793 -1.1051872 -0.13077839 -0.060159545 0.9967571 1.1326635 -0.044085015 0.45931908 -0.8345957 0.5160539 -0.6318473 1.4323906 1.2434107 0.4449509 1.2168527 -0.7574122 1.3053944 -0.7588565 -0.019543463 -0.030887866 0.6531645 0.7975443 -2.3667018 -0.7038924 -0.9677598 0.3165015 0.2223644 -1.1063038 -1.35232 -1.641922 0.50638306 -1.5039614 -1.1407409 0.9709853 -1.7539814 -0.9728138 0.38348192 2.9586453 -0.039818108 -0.9001118 -0.57737726 -0.5766294 0.7102613 1.9677223 1.3521583 -1.1194587 -0.24233156 0.36709073 -0.43970686 2.7959623 0.14816663 0.394195 0.2502519 0.9199131 0.6578593 -1.8767295 -1.9429839 0.3697596 0.8763435 0.7856758 0.7976346 0.29823062 -2.3432539 1.5142916 0.7798254 0.90490305 0.9148389 -2.1080194 -1.5993989 -0.5669722 0.8362213 -1.0541303 -0.24812213 -0.35132277 1.5795372 -0.14734657 -0.42204258 -0.39325148 -1.7724965 -0.59056526 0.37336698 0.039718013 -0.26743293 0.29348356 0.64579886 0.1519416 -0.737991 -0.63962185 -1.387431 1.4980619 0.9561177 -0.4804302 -1.3798089 -0.122230865 -0.087827064 0.82544404 -0.6207463 1.0138535 -0.61716723 1.4257308 0.52758044 0.40615216 0.09551334 -0.500499 -1.1004343 0.4626247 -0.07615134 0.6499529 -1.4597656 -1.8454801 0.28410345 0.7787604 -0.35878572 -0.48912266 -0.7767628 0.6905393 0.23371045 0.44884297 -0.10011193 -1.1643181 -0.8058088 0.8344933 0.058108434 -0.5768108 0.44195136 -0.8950075 0.8335158 -1.0769666 -0.45797205 0.2285121 -0.6414691 -0.96301377 0.68863714 -2.219905 -0.23979375 -1.106013 -0.17978548 -0.68070024 2.7922971 0.33713996 -0.1874369 -0.4462441 1.2230207 0.9384711 0.53602135 1.4792577 0.0046005473 -1.119496 1.1543401 -0.14815275 -0.9039422 -0.33109888 -0.035777774 1.3034607 -2.2461948 -1.5259825 -0.39296517 0.5912614 -0.33473876 1.5266919 -0.17357759 1.7554349 1.7277836 1.4651767 1.408181 0.45364884 -2.2492836 -0.560495 0.9397538 -0.7383184 0.7132433 1.943604 0.89359426 0.83266 0.37872615 0.33500752 0.74579257 2.1881618 -1.1859958 -0.6418483 -1.3199148 0.31464043 -1.1131527 0.65656817 -0.2084052 1.1276653 0.3566619 0.047703184 -0.4709775 -0.8519211 1.4492375 1.9511601 1.1390272 -0.5563891 -1.036148 1.0330822 0.24703819 1.0527092 0.8568741 -0.91979015 -2.4575584 0.74673754 -1.2772492 -0.23474564 0.89540803 0.10103174 -0.5577162 0.35010034 0.15737262 0.62642246 0.13924636 1.26546 1.1414391 0.118823774 0.036728755 0.51849216 -2.2130833 -1.0135473 0.24490471 1.4545323 -1.0532786 -0.08911691 -0.5624058 0.037445877 -0.14654258 -0.26886317 -0.71224976 -1.5085434 -0.6806901 0.4265836
*dt_24 -0.9340594 0.39994094 0.45033994 2.1066015 -0.26834118 -0.7381379 -1.0240788 0.8887264 0.07711039 -2.0181763 0.31313387 0.7878304 0.9778718 -0.61358863 -2.2983418 -1.0883439 -1.6522568 0.9398719 -1.3225112 0.67989886 0.503214 -2.082402 -1.4334577 0.4705743 -1.0441893 -0.5448927 0.16019213 0.35623878 -0.08258161 -0.64130545 1.4591702 1.249859 -2.2066267 -0.255719 -1.6507556 -0.33020115 0.23052247 -1.1902578 0.36907342 -0.20881285 -1.8300872 1.2213832 0.5585933 -2.5821254 0.59900206 0.5893382 0.0004659826 0.2033521 1.3432877 0.47919446 0.55883336 -0.7879048 -1.3339407 -1.8687776 0.17268 2.0663161 -0.35074058 0.5382152 -1.0979848 -2.244189 2.046109 1.8587965 -0.042303596 -1.5451362 0.9880571 0.57563704 -0.7727765 0.133944 0.24595949 -0.8184761 -1.706662 -0.69592047 -0.07778725 -0.9637788 -0.21671154 -0.9073162 -0.9986277 0.53696764 0.87791276 1.3368666 -0.42352155 1.7641531 1.233811 1.6344851 -0.8832417 0.83912647 -3.0905926 -1.2919654 -1.3207308 0.8883939 -0.3939158 -0.69200265 -1.4227769 -1.0145574 -0.19338647 -0.05504748 2.0165095 0.9181395 -0.9029257 0.86348075 0.92785907 0.7620709 0.5723405 0.55739033 -2.5627487 -0.6792112 1.5569639 1.4418309 0.46420768 1.0086035 0.15173686 0.36032414 -0.06355047 1.367075 0.5292808 1.1712496 -0.9131531 0.59548944 0.2797203 -0.8808401 0.5394424 0.577619 0.5804596 -0.28964913 -0.38534668 0.81752056 -0.4325482 0.5754928 0.40385067 0.61109436 0.22864603 1.4932364 0.90920395 1.9411248 -0.66503096 0.68489003 -2.0331025 -0.4024907 -0.2117371 -0.08964301 0.5249896 0.13638574 0.9511576 -1.8912098 0.44065946 0.88932043 1.1694225 -0.36437142 0.44816872 0.97598404 -1.1370119 -0.16979481 0.7664566 -0.10300475 0.933143 -1.0114588 0.59168655 -0.6522951 0.408024 1.4707311 -0.0640958 -1.0531299 0.5744745 1.202873 -0.5948997 1.3892169 -1.1578549 -0.3360467 0.54677063 1.1936688 1.0317125 -2.60505 -0.04605824 -0.8739204 0.89818394 0.4763532 -0.15418945 -0.6203094 -0.26252136 -0.22979906 -1.197278 0.8710794 -0.23250988 -0.8448092 -2.8398783 -1.2411314 1.3333611 0.044066057 -0.6088577 -0.29353914 -2.8439097 -1.2760789 -0.62205404 -0.71362406 -0.80090153 1.160094 -0.9602395 -0.89128906 0.9853854 0.17530619 -1.9198415 -0.6679852 1.5681587 2.3854961 1.0040315 0.4079066 0.80066764 0.25879228 -0.8013345 0.09369046 0.30861932 0.27356744 1.3509166 -0.5740331 0.6448877 0.3793062 -0.36000213 0.33913216 1.1375234 -0.15240283 -0.8202737 -0.9754585 0.073393665 1.2918421 -0.98620397 3.1043315 -1.6340771 0.6467109 -0.5823099 0.085091114 -0.50688136 -2.3917615 -0.04353248 0.41154745 3.8936176 2.0539596 0.3969488 -0.43683138 0.3765957 0.75904447 0.08962967 -1.1786354 0.9432827 0.47719878 -0.10676038 -0.8643875 -0.3366889 1.0339507 0.27162737 0.864454 -0.7385758 -0.87075126 0.5380294 -0.100540124 -1.1231205 0.15683457 1.0183126 0.58999777 1.476278 0.63550925 1.0593053 0.4822364 0.9237522 -0.37278384 0.83484167 -0.5538114 0.93521863 1.3303342 -1.0789783 -1.7367098 -0.43911988 -0.6245151 -0.00018637127 0.5475897 -0.8598155 1.0101287 -1.4242488 -1.0978208 -1.6262265 1.9228022 -0.60280627 0.38408288 -1.0225229 -0.31559622 -0.7058959 1.3876939 -1.9954597 -0.7806874 -2.4426284 0.044205602 -0.5021577 0.31445965 -0.4049633 -1.1876911 0.42417967 -0.27364758 -0.35615686 -0.15438972 0.10965101 1.2774986
*dt_25 -1.9427922 1.4435304 0.62102616 -1.4958446 -0.9033588 -0.5190269 0.5688481 -0.049835436 0.0800414 0.6428278 1.8137068 -1.2049284 1.1355329 0.20439005 -1.5418849 -0.0007071253 0.778005 -0.93006957 -1.1471238 0.9825039 0.14662528 -0.90418094 0.4344726 1.9642588 0.49862608 0.32775363 -0.28110301 0.051891923 1.1530273 -2.8106465 0.73165315 1.7996383 -1.1309408 -1.465522 -1.1870136 -2.4638302 0.15472992 -2.6071885 -0.3430709 0.08088398 -0.89906377 0.26387978 0.172414 -0.48349586 -0.2304113 -0.6249798 0.7183919 -1.7013016 1.3641927 1.7213458 -0.72142553 -0.703244 -3.590453 0.89742804 -0.11606024 0.33760568 -0.328564 0.85545903 -1.078886 0.34572208 1.8108813 0.5994668 -0.29471123 -0.1656029 0.42467073 1.0093255 -1.184041 -0.06898589 -1.0975639 -2.1674354 0.004701529 -1.5504377 -0.516601 -0.36997855 0.054943588 2.9607644 -0.6486269 -0.22119027 -0.55312294 1.2014195 -0.61681503 -0.20912887 0.043025386 0.27217835 0.98495305 0.054915413 -1.8063588 -1.6647079 0.31283194 0.0022692133 -0.45536265 0.38278884 -1.3123169 0.46289116 0.41585156 0.07291318 -0.65431803 -0.054689262 -1.6505111 0.20805639 -0.763603 0.25156695 -0.2624189 -0.26671392 0.051731855 -1.526875 -0.9506195 0.39613754 -1.8164619 -0.589218 1.5695709 -1.0763149 0.85376257 -0.046748847 -0.19244888 0.002644763 -0.51544607 1.3806112 0.25681862 0.33279264 1.4804382 0.8780632 1.6527152 0.14840487 -0.45806402 0.87042916 0.3381411 2.511949 2.18693 -0.41628626 0.63719994 0.7025948 0.47998267 0.08688287 -1.3568766 1.8857608 -1.6536648 -0.18202782 -0.82290053 0.6311184 0.73123205 0.98324126 -1.2806549 0.357783 0.12486848 -0.084503785 1.4169481 -0.26521143 0.027083345 -0.1508792 0.19841011 0.08788111 0.20799136 -0.04111998 0.7764863 1.9974488 -1.2016878 -0.24249452 0.2982324 1.1629875 1.1495525 -0.38923672 1.3132674 0.9642804 0.5654364 -1.4597532 0.23802444 1.5099492 -0.9075733 0.36003372 -0.039917838 -0.65677756 -1.4225756 -0.36332956 0.9869529 1.9865706 -0.024995502 0.16274358 1.3440478 0.70187026 -0.56077856 0.846155 -1.1498798 -0.4528616 -0.70311415 -1.1785247 -1.4523308 0.05011781 1.0522199 0.9193045 0.4714631 -0.07770013 -0.16772422 -0.548306 1.5897009 1.5399979 2.3323653 0.62694585 0.50061685 -0.09789304 -0.0056634992 0.6762161 0.7848689 0.05925378 0.018098384 0.12248378 3.3297834 3.5165415 -0.049727492 1.1403824 0.34644353 0.23397073 -0.5275985 0.3160698 -0.26938114 1.804044 -0.54793495 0.11321155 0.5817794 0.6329899 -2.1514113 0.97405463 0.42216626 0.63632435 -2.2036088 0.516902 -1.060829 0.7214847 -1.620958 0.60955495 0.36005032 -1.8760136 -0.38671705 0.9692372 1.193429 1.582929 1.2099544 -1.8693252 -0.8874253 1.5032142 0.96432054 -0.7081518 0.15551119 2.3870852 -0.3341404 0.915415 -1.0603989 0.83293706 -0.6317911 1.0918041 -0.5051946 -0.024824008 0.04055988 -1.0083785 -1.2636639 -0.2289627 1.6240668 -1.6209813 -0.68043077 -0.32687813 2.5112484 0.30862832 0.101652525 -0.14860019 -0.49206924 1.1175516 2.7342641 1.475076 -0.15843351 1.8419954 -2.2039254 0.85861653 -0.33488166 0.59889436 1.1966909 0.9395491 1.0115224 1.224331 -1.2058688 -0.92212796 -0.52943796 0.41504583 1.3488955 1.2533522 -2.1851928 2.310573 -1.0176582 0.52910405 0.53167707 -0.60909975 -1.2447375 -0.03880249 -0.3643672 0.050132286 0.88520616 0.61505425 1.131695 1.4945048 -0.021337733 -0.056701016
10 20
*dt_0 -4.629203 -2.032474 -4.916078 1.769917 -4.057168 -2.431810 1.586728 0.577937 -2.145380 -0.588046 -1.217658 4.729155 -5.033397 7.714956 0.440635 -2.548171 5.158988 -6.520911 -2.072509 -4.785203
*dt_1 0.427161 0.084785 -2.306181 -3.463553 2.847448 1.369229 2.169143 4.003649 1.238424 -3.752440 0.156033 -0.208283 -0.718572 -0.060199 -2.670532 2.068559 -1.205755 -2.607340 -3.237870 0.148330
*dt_2 -0.056422 3.316511 -3.731808 -0.205354 4.246081 -3.103485 -2.864539 -1.271502 1.085434 7.207356 1.822264 2.486514 0.232878 -2.567011 -4.447442 -2.440210 0.441330 1.264049 2.624388 -5.263537
*dt_3 -2.511531 -1.208869 4.618135 -4.947312 -1.669004 -5.034692 11.533730 7.221227 3.576261 3.090916 -3.786489 7.400443 -5.854499 3.269816 -3.465907 -7.678570 -4.399143 6.875394 5.088064 5.668601
*dt_4 5.092560 3.189878 6.331844 2.464842 3.784182 -5.209923 1.280221 0.898457 -4.899746 4.363255 -3.489732 0.737898 -3.359607 0.561477 0.860478 0.457745 0.645490 -10.412726 3.393780 0.558298
*dt_5 4.645586 0.521441 2.282146 -1.005680 4.241127 -4.570756 2.898228 4.945415 -4.566998 1.142047 -0.322121 2.507924 -1.230912 2.299635 -5.652437 4.559399 1.956236 -8.633038 -2.787633 -0.093163
*dt_6 1.714809 2.977493 -1.107532 8.373953 9.310669 -2.267650 6.542108 -1.816608 2.636385 0.753714 -1.365994 4.577419 -7.730291 -5.981214 0.151143 -0.756911 6.896517 1.373014 0.634157 1.378067
*dt_7 -0.066340 0.295920 -6.943088 5.538964 2.133269 -5.523985 1.482436 13.570168 -2.396151 4.248866 0.149373 4.315726 -5.390298 0.230101 -1.371856 4.248746 -1.664248 1.562269 7.738648 -3.320665
*dt_8 -0.921873 6.375730 3.979713 4.471438 0.508893 -9.369278 1.470442 8.345981 -0.566457 -1.323047 -5.748516 8.666062 1.599445 -5.032366 -7.426699 -0.475900 7.001830 -1.595753 1.748209 -2.200186
*dt_9 12.111588 -3.940432 -4.569829 -5.317488 -1.692044 -9.684802 5.529866 2.679795 1.932978 -0.481896 0.718376 12.271706 2.540534 -5.004290 4.717348 6.653434 7.360436 -3.358601 8.162530 -1.883464
